{"learner":{"attributes":{"scikit_learn":"{\"_estimator_type\": \"regressor\"}"},"feature_names":[],"feature_types":[],"gradient_booster":{"model":{"cats":{"enc":[],"feature_segments":[],"sorted_idx":[]},"gbtree_model_param":{"num_parallel_tree":"1","num_trees":"800"},"iteration_indptr":[0,1,2,3,4,5,6,7,8,9,10,11,12,13,14,15,16,17,18,19,20,21,22,23,24,25,26,27,28,29,30,31,32,33,34,35,36,37,38,39,40,41,42,43,44,45,46,47,48,49,50,51,52,53,54,55,56,57,58,59,60,61,62,63,64,65,66,67,68,69,70,71,72,73,74,75,76,77,78,79,80,81,82,83,84,85,86,87,88,89,90,91,92,93,94,95,96,97,98,99,100,101,102,103,104,105,106,107,108,109,110,111,112,113,114,115,116,117,118,119,120,121,122,123,124,125,126,127,128,129,130,131,132,133,134,135,136,137,138,139,140,141,142,143,144,145,146,147,148,149,150,151,152,153,154,155,156,157,158,159,160,161,162,163,164,165,166,167,168,169,170,171,172,173,174,175,176,177,178,179,180,181,182,183,184,185,186,187,188,189,190,191,192,193,194,195,196,197,198,199,200,201,202,203,204,205,206,207,208,209,210,211,212,213,214,215,216,217,218,219,220,221,222,223,224,225,226,227,228,229,230,231,232,233,234,235,236,237,238,239,240,241,242,243,244,245,246,247,248,249,250,251,252,253,254,255,256,257,258,259,260,261,262,263,264,265,266,267,268,269,270,271,272,273,274,275,276,277,278,279,280,281,282,283,284,285,286,287,288,289,290,291,292,293,294,295,296,297,298,299,300,301,302,303,304,305,306,307,308,309,310,311,312,313,314,315,316,317,318,319,320,321,322,323,324,325,326,327,328,329,330,331,332,333,334,335,336,337,338,339,340,341,342,343,344,345,346,347,348,349,350,351,352,353,354,355,356,357,358,359,360,361,362,363,364,365,366,367,368,369,370,371,372,373,374,375,376,377,378,379,380,381,382,383,384,385,386,387,388,389,390,391,392,393,394,395,396,397,398,399,400,401,402,403,404,405,406,407,408,409,410,411,412,413,414,415,416,417,418,419,420,421,422,423,424,425,426,427,428,429,430,431,432,433,434,435,436,437,438,439,440,441,442,443,444,445,446,447,448,449,450,451,452,453,454,455,456,457,458,459,460,461,462,463,464,465,466,467,468,469,470,471,472,473,474,475,476,477,478,479,480,481,482,483,484,485,486,487,488,489,490,491,492,493,494,495,496,497,498,499,500,501,502,503,504,505,506,507,508,509,510,511,512,513,514,515,516,517,518,519,520,521,522,523,524,525,526,527,528,529,530,531,532,533,534,535,536,537,538,539,540,541,542,543,544,545,546,547,548,549,550,551,552,553,554,555,556,557,558,559,560,561,562,563,564,565,566,567,568,569,570,571,572,573,574,575,576,577,578,579,580,581,582,583,584,585,586,587,588,589,590,591,592,593,594,595,596,597,598,599,600,601,602,603,604,605,606,607,608,609,610,611,612,613,614,615,616,617,618,619,620,621,622,623,624,625,626,627,628,629,630,631,632,633,634,635,636,637,638,639,640,641,642,643,644,645,646,647,648,649,650,651,652,653,654,655,656,657,658,659,660,661,662,663,664,665,666,667,668,669,670,671,672,673,674,675,676,677,678,679,680,681,682,683,684,685,686,687,688,689,690,691,692,693,694,695,696,697,698,699,700,701,702,703,704,705,706,707,708,709,710,711,712,713,714,715,716,717,718,719,720,721,722,723,724,725,726,727,728,729,730,731,732,733,734,735,736,737,738,739,740,741,742,743,744,745,746,747,748,749,750,751,752,753,754,755,756,757,758,759,760,761,762,763,764,765,766,767,768,769,770,771,772,773,774,775,776,777,778,779,780,781,782,783,784,785,786,787,788,789,790,791,792,793,794,795,796,797,798,799,800],"tree_info":[0,0,0,0,0,0,0,0,0,0,0,0,0,0,0,0,0,0,0,0,0,0,0,0,0,0,0,0,0,0,0,0,0,0,0,0,0,0,0,0,0,0,0,0,0,0,0,0,0,0,0,0,0,0,0,0,0,0,0,0,0,0,0,0,0,0,0,0,0,0,0,0,0,0,0,0,0,0,0,0,0,0,0,0,0,0,0,0,0,0,0,0,0,0,0,0,0,0,0,0,0,0,0,0,0,0,0,0,0,0,0,0,0,0,0,0,0,0,0,0,0,0,0,0,0,0,0,0,0,0,0,0,0,0,0,0,0,0,0,0,0,0,0,0,0,0,0,0,0,0,0,0,0,0,0,0,0,0,0,0,0,0,0,0,0,0,0,0,0,0,0,0,0,0,0,0,0,0,0,0,0,0,0,0,0,0,0,0,0,0,0,0,0,0,0,0,0,0,0,0,0,0,0,0,0,0,0,0,0,0,0,0,0,0,0,0,0,0,0,0,0,0,0,0,0,0,0,0,0,0,0,0,0,0,0,0,0,0,0,0,0,0,0,0,0,0,0,0,0,0,0,0,0,0,0,0,0,0,0,0,0,0,0,0,0,0,0,0,0,0,0,0,0,0,0,0,0,0,0,0,0,0,0,0,0,0,0,0,0,0,0,0,0,0,0,0,0,0,0,0,0,0,0,0,0,0,0,0,0,0,0,0,0,0,0,0,0,0,0,0,0,0,0,0,0,0,0,0,0,0,0,0,0,0,0,0,0,0,0,0,0,0,0,0,0,0,0,0,0,0,0,0,0,0,0,0,0,0,0,0,0,0,0,0,0,0,0,0,0,0,0,0,0,0,0,0,0,0,0,0,0,0,0,0,0,0,0,0,0,0,0,0,0,0,0,0,0,0,0,0,0,0,0,0,0,0,0,0,0,0,0,0,0,0,0,0,0,0,0,0,0,0,0,0,0,0,0,0,0,0,0,0,0,0,0,0,0,0,0,0,0,0,0,0,0,0,0,0,0,0,0,0,0,0,0,0,0,0,0,0,0,0,0,0,0,0,0,0,0,0,0,0,0,0,0,0,0,0,0,0,0,0,0,0,0,0,0,0,0,0,0,0,0,0,0,0,0,0,0,0,0,0,0,0,0,0,0,0,0,0,0,0,0,0,0,0,0,0,0,0,0,0,0,0,0,0,0,0,0,0,0,0,0,0,0,0,0,0,0,0,0,0,0,0,0,0,0,0,0,0,0,0,0,0,0,0,0,0,0,0,0,0,0,0,0,0,0,0,0,0,0,0,0,0,0,0,0,0,0,0,0,0,0,0,0,0,0,0,0,0,0,0,0,0,0,0,0,0,0,0,0,0,0,0,0,0,0,0,0,0,0,0,0,0,0,0,0,0,0,0,0,0,0,0,0,0,0,0,0,0,0,0,0,0,0,0,0,0,0,0,0,0,0,0,0,0,0,0,0,0,0,0,0,0,0,0,0,0,0,0,0,0,0,0,0,0,0,0,0,0,0,0,0,0,0,0,0,0,0,0,0,0,0,0,0,0,0,0,0,0,0,0,0,0,0,0,0,0,0,0,0,0,0,0,0,0,0,0,0,0,0,0,0,0,0,0,0,0,0,0,0,0,0,0,0,0,0,0,0,0,0,0,0,0,0,0,0,0,0,0,0,0,0,0,0,0,0,0,0,0,0,0,0,0,0,0,0,0,0,0,0,0,0,0,0,0,0,0,0,0,0,0,0,0,0,0,0,0,0,0,0,0,0,0,0,0,0,0,0,0,0,0,0,0,0,0,0,0,0,0],"trees":[{"base_weights":[-2.7813654E0,-6.0356747E1,6.1658057E2,-7.966819E1,1.4426775E2,3.5949466E2,7.5661945E2,-3.988868E0,-7.5462344E-3,1.054782E2,8.946768E0,5.042454E0,1.8266949E1,3.860413E1,1.3623271E1,5.4777894E0,1.2732717E0],"categories":[],"categories_nodes":[],"categories_segments":[],"categories_sizes":[],"default_left":[0,0,0,0,0,0,0,0,0,0,0,0,0,0,0,0,0],"id":0,"left_children":[1,3,5,7,9,11,13,-1,-1,15,-1,-1,-1,-1,-1,-1,-1],"loss_changes":[3.1025756E7,3.156963E6,2.39215E6,6.3075E3,7.3913125E4,5.48075E3,1.41502E5,0E0,0E0,8.629156E3,0E0,0E0,0E0,0E0,0E0,0E0,0E0],"parents":[2147483647,0,0,1,1,2,2,3,3,4,4,5,5,6,6,9,9],"right_children":[2,4,6,8,10,12,14,-1,-1,16,-1,-1,-1,-1,-1,-1,-1],"split_conditions":[1.366681E0,4.4449794E-1,2.8626816E0,1.0026704E0,6.55874E-1,-1.5958874E-1,2.7672327E0,-3.988868E0,-7.5462344E-3,2.7672327E0,8.946768E0,5.042454E0,1.8266949E1,3.860413E1,1.3623271E1,5.4777894E0,1.2732717E0],"split_indices":[20,8,20,4,20,17,4,0,0,4,0,0,0,0,0,0,0],"split_type":[0,0,0,0,0,0,0,0,0,0,0,0,0,0,0,0,0],"sum_hessian":[8.68E2,7.95E2,7.3E1,7.27E2,6.8E1,2.7E1,4.6E1,7.26E2,1E0,3.4E1,3.4E1,1E0,2.6E1,4.4E1,2E0,3.2E1,2E0],"tree_param":{"num_deleted":"0","num_feature":"23","num_nodes":"17","size_leaf_vector":"1"}},{"base_weights":[5.0524883E0,-5.9583416E1,5.711158E2,-7.588698E1,1.3961652E2,3.4506436E2,7.166299E2,-3.7997177E0,-7.3575974E-3,9.852744E1,1.6775891E2,4.916393E0,1.746523E1,3.6474606E1,1.3169164E1,5.0665774E0,7.10622E-1,1.7372714E2,2.5083795E0,6.6705995E0,9.771593E0],"categories":[],"categories_nodes":[],"categories_segments":[],"categories_sizes":[],"default_left":[0,0,0,0,0,0,0,0,0,0,0,0,0,0,0,0,0,0,0,0,0],"id":1,"left_children":[1,3,5,7,9,11,13,-1,-1,15,17,-1,-1,-1,-1,-1,-1,19,-1,-1,-1],"loss_changes":[3.1060662E7,2.4853188E6,2.614466E6,5.72225E3,5.0539125E4,3.318E3,1.1101E5,0E0,0E0,4.706953E3,1.44443125E4,0E0,0E0,0E0,0E0,0E0,0E0,1.0529375E3,0E0,0E0,0E0],"parents":[2147483647,0,0,1,1,2,2,3,3,4,4,5,5,6,6,9,9,10,10,17,17],"right_children":[2,4,6,8,10,12,14,-1,-1,16,18,-1,-1,-1,-1,-1,-1,20,-1,-1,-1],"split_conditions":[1.366681E0,4.4449794E-1,2.8626816E0,2.3763332E-1,6.2499386E-1,-1.5958874E-1,8.934285E-1,-3.7997177E0,-7.3575974E-3,8.934285E-1,8.934285E-1,4.916393E0,1.746523E1,3.6474606E1,1.3169164E1,5.0665774E0,7.10622E-1,6.411805E-1,2.5083795E0,6.6705995E0,9.771593E0],"split_indices":[20,8,20,5,8,17,2,0,0,2,2,0,0,0,0,0,0,9,0,0,0],"split_type":[0,0,0,0,0,0,0,0,0,0,0,0,0,0,0,0,0,0,0,0,0],"sum_hessian":[8.47E2,7.61E2,8.6E1,7.04E2,5.7E1,3.5E1,5.1E1,7.03E2,1E0,2.5E1,3.2E1,1E0,3.4E1,4.9E1,2E0,2.4E1,1E0,3E1,2E0,1.3E1,1.7E1],"tree_param":{"num_deleted":"0","num_feature":"23","num_nodes":"21","size_leaf_vector":"1"}},{"base_weights":[-3.1715987E0,-5.46219E1,5.326398E2,-7.164162E1,1.3395905E2,1.6154068E1,6.810768E2,-3.5940187E0,9.142436E0,9.739156E1,1.6443553E2,9.322642E0,3.442071E1,-7.173729E-3,6.9285643E-1,4.9574413E0,1.0729126E0,1.6656259E2,2.356075E0,6.453097E0,9.370096E0],"categories":[],"categories_nodes":[],"categories_segments":[],"categories_sizes":[],"default_left":[0,0,0,0,0,0,0,0,0,0,0,0,0,0,0,0,0,0,0,0,0],"id":2,"left_children":[1,3,5,7,9,-1,11,-1,13,15,17,-1,-1,-1,-1,-1,-1,19,-1,-1,-1],"loss_changes":[2.3599442E7,2.5162908E6,2.112924E6,1.448675E4,5.6424375E4,0E0,2.77E4,0E0,1.3332878E2,2.1423438E3,6.354375E2,0E0,0E0,0E0,0E0,0E0,0E0,1.6026875E3,0E0,0E0,0E0],"parents":[2147483647,0,0,1,1,2,2,3,3,4,4,6,6,8,8,9,9,10,10,17,17],"right_children":[2,4,6,8,10,-1,12,-1,14,16,18,-1,-1,-1,-1,-1,-1,20,-1,-1,-1],"split_conditions":[1.366681E0,-1.853375E-2,2.8626816E0,2.3763332E-1,6.55874E-1,1.6154068E1,4.5864496E-2,-3.5940187E0,4.5829162E-1,7.157263E-1,1.3960893E0,9.322642E0,3.442071E1,-7.173729E-3,6.9285643E-1,4.9574413E0,1.0729126E0,8.720259E-1,2.356075E0,6.453097E0,9.370096E0],"split_indices":[20,18,20,5,20,0,17,0,5,5,5,0,0,0,0,0,0,5,0,0,0],"split_type":[0,0,0,0,0,0,0,0,0,0,0,0,0,0,0,0,0,0,0,0,0],"sum_hessian":[8.54E2,7.8E2,7.4E1,7.16E2,6.4E1,3.2E1,4.2E1,7.14E2,2E0,3.1E1,3.3E1,1E0,4.1E1,1E0,1E0,3E1,1E0,3.2E1,1E0,1.4E1,1.8E1],"tree_param":{"num_deleted":"0","num_feature":"23","num_nodes":"21","size_leaf_vector":"1"}},{"base_weights":[-1.8446337E0,-5.2663822E1,5.3311847E2,-6.845747E1,1.2697917E2,3.1245337E2,6.483328E2,-3.429369E0,6.75535E-1,1.03685104E2,1.820423E2,1.5876128E1,4.389631E0,3.300334E1,1.2419436E1,1.0637323E2,1.395275E0,9.367278E0,2.2971733E0,3.772496E0,5.8772187E0],"categories":[],"categories_nodes":[],"categories_segments":[],"categories_sizes":[],"default_left":[0,0,0,0,0,0,0,0,0,0,0,0,0,0,0,0,0,0,0,0,0],"id":3,"left_children":[1,3,5,7,9,11,13,-1,-1,15,17,-1,-1,-1,-1,19,-1,-1,-1,-1,-1],"loss_changes":[2.3816164E7,2.2784685E6,1.729636E6,8.76325E3,6.449675E4,4.01125E3,6.6002E4,0E0,0E0,6.8094062E3,4.3845E3,0E0,0E0,0E0,0E0,7.0219375E3,0E0,0E0,0E0,0E0,0E0],"parents":[2147483647,0,0,1,1,2,2,3,3,4,4,5,5,6,6,9,9,10,10,15,15],"right_children":[2,4,6,8,10,12,14,-1,-1,16,18,-1,-1,-1,-1,20,-1,-1,-1,-1,-1],"split_conditions":[1.2489791E0,-1.853375E-2,2.324693E0,1.0026704E0,9.521077E-1,2.7672327E0,2.7672327E0,-3.429369E0,6.75535E-1,2.7672327E0,2.7672327E0,1.5876128E1,4.389631E0,3.300334E1,1.2419436E1,5.219821E-1,1.395275E0,9.367278E0,2.2971733E0,3.772496E0,5.8772187E0],"split_indices":[11,18,5,4,6,4,4,0,0,4,4,0,0,0,0,6,0,0,0,0,0],"split_type":[0,0,0,0,0,0,0,0,0,0,0,0,0,0,0,0,0,0,0,0,0],"sum_hessian":[8.74E2,7.99E2,7.5E1,7.35E2,6.4E1,2.7E1,4.8E1,7.34E2,1E0,4.7E1,1.7E1,2.6E1,1E0,4.6E1,2E0,4.5E1,2E0,1.6E1,1E0,1.4E1,3.1E1],"tree_param":{"num_deleted":"0","num_feature":"23","num_nodes":"21","size_leaf_vector":"1"}},{"base_weights":[-4.049847E0,-5.006775E1,4.82924E2,-6.482965E1,1.1966873E2,2.9197607E2,6.13794E2,-3.2459183E0,-2.3882866E-2,9.8299225E1,1.6763142E2,4.2798905E0,1.4793612E1,3.130831E1,1.2005454E1,1.0092815E2,1.348766E0,8.611106E0,2.239744E0,3.6446786E0,5.516659E0],"categories":[],"categories_nodes":[],"categories_segments":[],"categories_sizes":[],"default_left":[0,0,0,0,0,0,0,0,0,0,0,0,0,0,0,0,0,0,0,0,0],"id":4,"left_children":[1,3,5,7,9,11,13,-1,-1,15,17,-1,-1,-1,-1,19,-1,-1,-1,-1,-1],"loss_changes":[1.9206722E7,1.9696688E6,1.67E6,4.08525E3,4.8093125E4,4.045E2,4.8455E4,0E0,0E0,5.902625E3,2.4355938E3,0E0,0E0,0E0,0E0,3.5587188E3,0E0,0E0,0E0,0E0,0E0],"parents":[2147483647,0,0,1,1,2,2,3,3,4,4,5,5,6,6,9,9,10,10,15,15],"right_children":[2,4,6,8,10,12,14,-1,-1,16,18,-1,-1,-1,-1,20,-1,-1,-1,-1,-1],"split_conditions":[1.366681E0,4.2884162E-1,2.8626816E0,2.3763332E-1,9.616863E-1,4.7815323E-1,8.934285E-1,-3.2459183E0,-2.3882866E-2,8.934285E-1,8.388896E-1,4.2798905E0,1.4793612E1,3.130831E1,1.2005454E1,4.8057958E-1,1.348766E0,8.611106E0,2.239744E0,3.6446786E0,5.516659E0],"split_indices":[20,7,20,5,20,18,2,0,0,2,2,0,0,0,0,6,0,0,0,0,0],"split_type":[0,0,0,0,0,0,0,0,0,0,0,0,0,0,0,0,0,0,0,0,0],"sum_hessian":[8.55E2,7.82E2,7.3E1,7.2E2,6.2E1,3.1E1,4.2E1,7.19E2,1E0,4.5E1,1.7E1,1E0,3E1,4E1,2E0,4.3E1,2E0,1.6E1,1E0,1.3E1,3E1],"tree_param":{"num_deleted":"0","num_feature":"23","num_nodes":"21","size_leaf_vector":"1"}},{"base_weights":[-3.1007671E0,-4.7568733E1,4.4949854E2,-6.179063E1,1.09794365E2,2.9142642E2,2.9444822E1,-3.0936604E0,-2.3285866E-2,9.2742874E1,8.136167E0,4.172893E0,1.4735152E1,9.624294E1,1.2903192E0,3.475125E0,5.339124E0],"categories":[],"categories_nodes":[],"categories_segments":[],"categories_sizes":[],"default_left":[0,0,0,0,0,0,0,0,0,0,0,0,0,0,0,0,0],"id":5,"left_children":[1,3,5,7,9,11,-1,-1,-1,13,-1,-1,-1,15,-1,-1,-1],"loss_changes":[1.7772664E7,1.8061374E6,1.56914E6,3.70875E3,4.537725E4,1.9805E3,0E0,0E0,0E0,9.933219E3,0E0,0E0,0E0,6.6699688E3,0E0,0E0,0E0],"parents":[2147483647,0,0,1,1,2,2,3,3,4,4,5,5,9,9,13,13],"right_children":[2,4,6,8,10,12,-1,-1,-1,14,-1,-1,-1,16,-1,-1,-1],"split_conditions":[1.1938193E0,-1.2511861E-2,3.2001932E0,1.0026704E0,9.521077E-1,-1.5958874E-1,2.9444822E1,-3.0936604E0,-2.3285866E-2,8.934285E-1,8.136167E0,4.172893E0,1.4735152E1,4.3658394E-1,1.2903192E0,3.475125E0,5.339124E0],"split_indices":[5,11,9,4,6,17,0,0,0,2,0,0,0,9,0,0,0],"split_type":[0,0,0,0,0,0,0,0,0,0,0,0,0,0,0,0,0],"sum_hessian":[8.81E2,8.03E2,7.8E1,7.37E2,6.6E1,3.8E1,4E1,7.36E2,1E0,5.2E1,1.4E1,1E0,3.7E1,4.9E1,3E0,1.6E1,3.3E1],"tree_param":{"num_deleted":"0","num_feature":"23","num_nodes":"17","size_leaf_vector":"1"}},{"base_weights":[-1.6195325E0,-4.609257E1,4.489076E2,-2.9325044E0,1.02882965E2,1.34352865E1,5.6450653E2,7.7479774E1,1.3200255E2,5.697686E2,8.192835E0,4.0155697E0,1.025267E0,6.886106E0,2.016928E0,2.1964884E1,3.1018042E1],"categories":[],"categories_nodes":[],"categories_segments":[],"categories_sizes":[],"default_left":[0,0,0,0,0,0,0,0,0,0,0,0,0,0,0,0,0],"id":6,"left_children":[1,3,5,-1,7,-1,9,11,13,15,-1,-1,-1,-1,-1,-1,-1],"loss_changes":[1.7171772E7,1.4652295E6,1.452312E6,0E0,3.4896125E4,0E0,3.619E3,3.9997344E3,8.6E3,2.4513E4,0E0,0E0,0E0,0E0,0E0,0E0,0E0],"parents":[2147483647,0,0,1,1,2,2,4,4,6,6,7,7,8,8,9,9],"right_children":[2,4,6,-1,8,-1,10,12,14,16,-1,-1,-1,-1,-1,-1,-1],"split_conditions":[1.366681E0,2.3763332E-1,2.8626816E0,-2.9325044E0,6.55874E-1,1.34352865E1,8.934285E-1,8.934285E-1,8.934285E-1,3.3751237E0,8.192835E0,4.0155697E0,1.025267E0,6.886106E0,2.016928E0,2.1964884E1,3.1018042E1],"split_indices":[20,5,20,0,20,0,2,2,2,20,0,0,0,0,0,0,0],"split_type":[0,0,0,0,0,0,0,0,0,0,0,0,0,0,0,0,0],"sum_hessian":[8.55E2,7.79E2,7.6E1,7.19E2,6E1,3.1E1,4.5E1,3.4E1,2.6E1,4.4E1,1E0,3.2E1,2E0,2.4E1,2E0,1.5E1,2.9E1],"tree_param":{"num_deleted":"0","num_feature":"23","num_nodes":"17","size_leaf_vector":"1"}},{"base_weights":[5.7121115E0,-4.238996E1,4.3309973E2,-5.546849E1,9.800731E1,1.2603888E1,5.371297E2,-2.7771683E0,-4.833546E-2,7.417136E1,1.21760025E2,5.4568097E2,1.0350684E1,7.678539E1,9.9109125E-1,8.9554065E-1,6.2266116E0,2.0860922E1,2.9497807E1,2.951366E0,4.3132343E0],"categories":[],"categories_nodes":[],"categories_segments":[],"categories_sizes":[],"default_left":[0,0,0,0,0,0,0,0,0,0,0,0,0,0,0,0,0,0,0,0,0],"id":7,"left_children":[1,3,5,7,9,-1,11,-1,-1,13,15,17,-1,19,-1,-1,-1,-1,-1,-1,-1],"loss_changes":[1.7883462E7,1.4413368E6,1.521791E6,2.868E3,2.8902125E4,0E0,4.2298E4,0E0,0E0,3.5925469E3,6.9820625E3,5.5307E4,0E0,6.313906E2,0E0,0E0,0E0,0E0,0E0,0E0,0E0],"parents":[2147483647,0,0,1,1,2,2,3,3,4,4,6,6,9,9,10,10,11,11,13,13],"right_children":[2,4,6,8,10,-1,12,-1,-1,14,16,18,-1,20,-1,-1,-1,-1,-1,-1,-1],"split_conditions":[1.1269902E0,4.4449794E-1,2.8626816E0,2.3763332E-1,6.55874E-1,1.2603888E1,8.934285E-1,-2.7771683E0,-4.833546E-2,8.934285E-1,-2.6642442E-1,3.3143487E0,1.0350684E1,1.2378266E-1,9.9109125E-1,8.9554065E-1,6.2266116E0,2.0860922E1,2.9497807E1,2.951366E0,4.3132343E0],"split_indices":[20,8,20,5,20,0,2,0,0,2,17,6,0,11,0,0,0,0,0,0,0],"split_type":[0,0,0,0,0,0,0,0,0,0,0,0,0,0,0,0,0,0,0,0,0],"sum_hessian":[8.68E2,7.81E2,8.7E1,7.15E2,6.6E1,3.3E1,5.4E1,7.14E2,1E0,3.5E1,3.1E1,5.2E1,2E0,3.3E1,2E0,1E0,3E1,1.6E1,3.6E1,1.4E1,1.9E1],"tree_param":{"num_deleted":"0","num_feature":"23","num_nodes":"21","size_leaf_vector":"1"}},{"base_weights":[-1.3876021E0,-4.1116257E1,4.1498718E2,-5.2837044E1,9.4232414E1,2.3691728E2,5.160306E2,-5.2907516E1,-4.7127154E-2,6.724638E1,1.1827368E2,3.4175916E0,1.2024817E1,5.256244E2,1.0005662E1,-2.7983184E0,-5.1502754E1,3.4357965E0,5.422606E-1,8.731522E-1,1.2096231E2,1.9797785E1,2.8296436E1,-2.6010482E0,-2.0574787E0,4.362817E0,1.3285771E2,6.7876964E0,1.8733397E0],"categories":[],"categories_nodes":[],"categories_segments":[],"categories_sizes":[],"default_left":[0,0,0,0,0,0,0,0,0,0,0,0,0,0,0,0,0,0,0,0,0,0,0,0,0,0,0,0,0],"id":8,"left_children":[1,3,5,7,9,11,13,15,-1,17,19,-1,-1,21,-1,-1,23,-1,-1,-1,25,-1,-1,-1,-1,-1,27,-1,-1],"loss_changes":[1.424319E7,1.251884E6,1.227203E6,2.597875E3,3.2919562E4,1.057625E3,3.7266E4,2.24125E2,0E0,1.9070469E3,6.5609688E3,0E0,0E0,1.1096E4,0E0,0E0,5.84875E2,0E0,0E0,0E0,8.3665625E2,0E0,0E0,0E0,0E0,0E0,7.1546875E2,0E0,0E0],"parents":[2147483647,0,0,1,1,2,2,3,3,4,4,5,5,6,6,7,7,9,9,10,10,13,13,16,16,20,20,26,26],"right_children":[2,4,6,8,10,12,14,16,-1,18,20,-1,-1,22,-1,-1,24,-1,-1,-1,26,-1,-1,-1,-1,-1,28,-1,-1],"split_conditions":[1.366681E0,3.0047053E-1,2.8626816E0,1.0026704E0,6.2910897E-1,-1.5958874E-1,8.934285E-1,-3.9380604E-1,-4.7127154E-2,8.388896E-1,-2.6642442E-1,3.4175916E0,1.2024817E1,3.3143487E0,1.0005662E1,-2.7983184E0,3.5256848E-1,3.4357965E0,5.422606E-1,8.731522E-1,1.3010728E-1,1.9797785E1,2.8296436E1,-2.6010482E0,-2.0574787E0,4.362817E0,8.934285E-1,6.7876964E0,1.8733397E0],"split_indices":[20,20,20,4,7,17,2,20,0,2,17,0,0,6,0,0,4,0,0,0,10,0,0,0,0,0,2,0,0],"split_type":[0,0,0,0,0,0,0,0,0,0,0,0,0,0,0,0,0,0,0,0,0,0,0,0,0,0,0,0,0],"sum_hessian":[8.59E2,7.85E2,7.4E1,7.23E2,6.2E1,2.8E1,4.6E1,7.22E2,1E0,3.1E1,3.1E1,1E0,2.7E1,4.4E1,2E0,2.15E2,5.07E2,3E1,1E0,1E0,3E1,1.3E1,3.1E1,4.79E2,2.8E1,1E1,2E1,1.9E1,1E0],"tree_param":{"num_deleted":"0","num_feature":"23","num_nodes":"29","size_leaf_vector":"1"}},{"base_weights":[2.463469E0,-3.898065E1,3.969197E2,-5.03477E1,9.414966E1,2.3287605E2,2.4698462E1,-5.0416023E1,-4.5948982E-2,6.333268E1,1.1675924E2,3.332152E0,1.1804431E1,-2.2111633E0,-2.5538902E0,3.2192504E0,8.729931E-1,4.5003896E0,1.3098486E2,6.7016764E0,1.8265063E0],"categories":[],"categories_nodes":[],"categories_segments":[],"categories_sizes":[],"default_left":[0,0,0,0,0,0,0,0,0,0,0,0,0,0,0,0,0,0,0,0,0],"id":9,"left_children":[1,3,5,7,9,11,-1,13,-1,15,17,-1,-1,-1,-1,-1,-1,-1,19,-1,-1],"loss_changes":[1.3927529E7,1.1714932E6,1.174517E6,2.354875E3,3.5107625E4,1.3555E3,0E0,6.50875E2,0E0,2.2750781E2,1.14925E3,0E0,0E0,0E0,0E0,0E0,0E0,0E0,8.6296875E2,0E0,0E0],"parents":[2147483647,0,0,1,1,2,2,3,3,4,4,5,5,7,7,9,9,10,10,18,18],"right_children":[2,4,6,8,10,12,-1,14,-1,16,18,-1,-1,-1,-1,-1,-1,-1,20,-1,-1],"split_conditions":[1.2489791E0,-1.2511861E-2,2.8626816E0,1.0026704E0,6.55874E-1,-1.5958874E-1,2.4698462E1,3.0394015E-1,-4.5948982E-2,8.934285E-1,2.1779828E-1,3.332152E0,1.1804431E1,-2.2111633E0,-2.5538902E0,3.2192504E0,8.729931E-1,4.5003896E0,8.934285E-1,6.7016764E0,1.8265063E0],"split_indices":[11,11,20,4,20,17,0,22,0,2,11,0,0,0,0,0,0,0,2,0,0],"split_type":[0,0,0,0,0,0,0,0,0,0,0,0,0,0,0,0,0,0,0,0,0],"sum_hessian":[8.5E2,7.7E2,8E1,7.1E2,6E1,3.1E1,4.9E1,7.09E2,1E0,2.7E1,3.3E1,1E0,3E1,7.5E1,6.34E2,2.6E1,1E0,1.4E1,1.9E1,1.8E1,1E0],"tree_param":{"num_deleted":"0","num_feature":"23","num_nodes":"21","size_leaf_vector":"1"}},{"base_weights":[2.2733293E0,-3.7249397E1,3.7630063E2,-4.7829235E1,8.643746E1,1.09874525E1,4.6841412E2,-4.7892128E1,-4.480019E-2,7.1242775E1,6.515548E0,1.9833176E1,2.7081802E1,-2.5355067E0,-2.3307111E0,7.400755E1,1.0818541E0,2.7142665E0,4.184848E0],"categories":[],"categories_nodes":[],"categories_segments":[],"categories_sizes":[],"default_left":[0,0,0,0,0,0,0,0,0,0,0,0,0,0,0,0,0,0,0],"id":10,"left_children":[1,3,5,7,9,-1,11,13,-1,15,-1,-1,-1,-1,-1,17,-1,-1,-1],"loss_changes":[1.299312E7,1.044461E6,1.108389E6,2.120875E3,3.2714906E4,0E0,5.8346E4,2.72E2,0E0,5.1189844E3,0E0,0E0,0E0,0E0,0E0,4.2469062E3,0E0,0E0,0E0],"parents":[2147483647,0,0,1,1,2,2,3,3,4,4,6,6,7,7,9,9,15,15],"right_children":[2,4,6,8,10,-1,12,14,-1,16,-1,-1,-1,-1,-1,18,-1,-1,-1],"split_conditions":[1.4719387E0,4.4449794E-1,2.8626816E0,1.0026704E0,9.616863E-1,1.09874525E1,3.5569582E0,-3.9380604E-1,-4.480019E-2,8.934285E-1,6.515548E0,1.9833176E1,2.7081802E1,-2.5355067E0,-2.3307111E0,5.3189605E-1,1.0818541E0,2.7142665E0,4.184848E0],"split_indices":[6,8,20,4,20,0,20,20,0,2,0,0,0,0,0,20,0,0,0],"split_type":[0,0,0,0,0,0,0,0,0,0,0,0,0,0,0,0,0,0,0],"sum_hessian":[8.77E2,7.94E2,8.3E1,7.32E2,6.2E1,3.2E1,5.1E1,7.31E2,1E0,4.8E1,1.4E1,2.9E1,2.2E1,2.16E2,5.15E2,4.5E1,3E0,1.7E1,2.8E1],"tree_param":{"num_deleted":"0","num_feature":"23","num_nodes":"19","size_leaf_vector":"1"}},{"base_weights":[7.163948E-1,-3.5492702E1,3.5490643E2,-4.5451748E1,8.411102E1,2.1814212E2,4.4530463E2,-4.551383E1,-4.368019E-2,7.0812126E1,1.1840031E2,1.11834135E1,4.4162383E0,1.9147207E1,2.691483E1,-2.419259E0,-4.4237247E1,2.3440132E0,7.717595E1,6.1277084E0,1.5061573E0,-8.765901E-1,-4.430944E1,3.9998016E0,1.0684907E0,-2.2348015E0,-1.7962264E0],"categories":[],"categories_nodes":[],"categories_segments":[],"categories_sizes":[],"default_left":[0,0,0,0,0,0,0,0,0,0,0,0,0,0,0,0,0,0,0,0,0,0,0,0,0,0,0],"id":11,"left_children":[1,3,5,7,9,11,13,15,-1,17,19,-1,-1,-1,-1,-1,21,-1,23,-1,-1,-1,25,-1,-1,-1,-1],"loss_changes":[1.0785514E7,9.12662E5,8.67194E5,1.911125E3,1.8520406E4,3.91825E3,6.0617E4,4.40125E2,0E0,3.2353906E3,1.8086562E3,0E0,0E0,0E0,0E0,0E0,1.851875E2,0E0,3.6413281E3,0E0,0E0,0E0,5.375E0,0E0,0E0,0E0,0E0],"parents":[2147483647,0,0,1,1,2,2,3,3,4,4,5,5,6,6,7,7,9,9,10,10,16,16,18,18,22,22],"right_children":[2,4,6,8,10,12,14,16,-1,18,20,-1,-1,-1,-1,-1,22,-1,24,-1,-1,-1,26,-1,-1,-1,-1],"split_conditions":[1.2489791E0,4.4449794E-1,3.2015548E0,1.0026704E0,9.616863E-1,8.934285E-1,4.090655E0,-3.9380604E-1,-4.368019E-2,4.5750928E-1,8.388896E-1,1.11834135E1,4.4162383E0,1.9147207E1,2.691483E1,-2.419259E0,2.766227E-1,2.3440132E0,8.934285E-1,6.1277084E0,1.5061573E0,-8.765901E-1,3.5256848E-1,3.9998016E0,1.0684907E0,-2.2348015E0,-1.7962264E0],"split_indices":[11,8,20,4,20,2,8,20,0,20,2,0,0,0,0,0,22,0,2,0,0,0,4,0,0,0,0],"split_type":[0,0,0,0,0,0,0,0,0,0,0,0,0,0,0,0,0,0,0,0,0,0,0,0,0,0,0],"sum_hessian":[8.39E2,7.62E2,7.7E1,7.04E2,5.8E1,3.2E1,4.5E1,7.03E2,1E0,4.4E1,1.4E1,3E1,2E0,3E1,1.5E1,2.05E2,4.98E2,1.1E1,3.3E1,1.3E1,1E0,2E0,4.96E2,3.1E1,2E0,4.7E2,2.6E1],"tree_param":{"num_deleted":"0","num_feature":"23","num_nodes":"27","size_leaf_vector":"1"}},{"base_weights":[2.5573938E0,-3.3268234E1,3.2825296E2,-4.3146793E1,7.773148E1,1.9845161E2,4.159862E2,-4.320388E1,-4.2588234E-2,6.447083E1,1.1431282E2,1.0039111E1,2.8637555E0,1.5444713E1,4.5202747E2,-3.801944E1,-2.1875784E0,6.688179E1,1.0012162E0,5.900883E0,1.4685032E0,2.3264732E1,7.549512E0,-1.0526209E0,-1.9452657E0,2.445183E0,3.7291646E0],"categories":[],"categories_nodes":[],"categories_segments":[],"categories_sizes":[],"default_left":[0,0,0,0,0,0,0,0,0,0,0,0,0,0,0,0,0,0,0,0,0,0,0,0,0,0,0],"id":12,"left_children":[1,3,5,7,9,11,13,15,-1,17,19,-1,-1,-1,21,23,-1,25,-1,-1,-1,-1,-1,-1,-1,-1,-1],"loss_changes":[1.0243973E7,8.706992E5,9.08194E5,1.7185E3,2.4161156E4,6.74125E2,5.7218E4,3.98E2,0E0,4.0186719E3,1.569E3,0E0,0E0,0E0,7.3526E4,3.383047E2,0E0,2.8601562E3,0E0,0E0,0E0,0E0,0E0,0E0,0E0,0E0,0E0],"parents":[2147483647,0,0,1,1,2,2,3,3,4,4,5,5,6,6,7,7,9,9,10,10,14,14,15,15,17,17],"right_children":[2,4,6,8,10,12,14,16,-1,18,20,-1,-1,-1,22,24,-1,26,-1,-1,-1,-1,-1,-1,-1,-1,-1],"split_conditions":[1.366681E0,4.4449794E-1,3.091655E0,4.324367E-1,9.616863E-1,8.934285E-1,3.3751237E0,3.0394015E-1,-4.2588234E-2,8.934285E-1,7.8435063E-1,1.0039111E1,2.8637555E0,1.5444713E1,8.934285E-1,-2.873433E-1,-2.1875784E0,4.5750928E-1,1.0012162E0,5.900883E0,1.4685032E0,2.3264732E1,7.549512E0,-1.0526209E0,-1.9452657E0,2.445183E0,3.7291646E0],"split_indices":[20,8,8,9,20,2,20,22,0,2,2,0,0,0,2,17,0,20,0,0,0,0,0,0,0,0,0],"split_type":[0,0,0,0,0,0,0,0,0,0,0,0,0,0,0,0,0,0,0,0,0,0,0,0,0,0,0],"sum_hessian":[8.76E2,7.9E2,8.6E1,7.26E2,6.4E1,3.6E1,5E1,7.25E2,1E0,4.9E1,1.5E1,3.5E1,1E0,1.5E1,3.5E1,7.6E1,6.49E2,4.6E1,3E0,1.4E1,1E0,3.3E1,2E0,5E0,7.1E1,1.6E1,3E1],"tree_param":{"num_deleted":"0","num_feature":"23","num_nodes":"27","size_leaf_vector":"1"}},{"base_weights":[3.82343E-1,-3.1915464E1,3.1885843E2,-4.108658E1,7.480672E1,1.8930075E2,3.9431616E2,-4.1141567E1,-4.1523553E-2,6.0819588E1,5.7289214E0,9.707742E0,3.963889E0,4.0177914E2,7.2978616E0,-2.1256008E0,-3.9288353E1,4.408355E1,6.9391754E1,1.53068E1,2.1852257E1,-4.0345E1,-1.5990738E0,2.2790663E0,4.280903E-1,3.610326E0,9.995007E-1,-2.0205228E0,-5.6189615E-1],"categories":[],"categories_nodes":[],"categories_segments":[],"categories_sizes":[],"default_left":[0,0,0,0,0,0,0,0,0,0,0,0,0,0,0,0,0,0,0,0,0,0,0,0,0,0,0,0,0],"id":13,"left_children":[1,3,5,7,9,11,13,15,-1,17,-1,-1,-1,19,-1,-1,21,23,25,-1,-1,27,-1,-1,-1,-1,-1,-1,-1],"loss_changes":[8.825347E6,7.6552844E5,6.976705E5,1.55525E3,2.75215E4,1.163625E3,3.21785E4,1.5075E2,0E0,3.8272344E3,0E0,0E0,0E0,2.4734E4,0E0,0E0,1.1649375E3,6.206094E2,2.7282188E3,0E0,0E0,6.790625E1,0E0,0E0,0E0,0E0,0E0,0E0,0E0],"parents":[2147483647,0,0,1,1,2,2,3,3,4,4,5,5,6,6,7,7,9,9,13,13,16,16,17,17,18,18,21,21],"right_children":[2,4,6,8,10,12,14,16,-1,18,-1,-1,-1,20,-1,-1,22,24,26,-1,-1,28,-1,-1,-1,-1,-1,-1,-1],"split_conditions":[1.366681E0,4.2884162E-1,2.8626816E0,1.0026704E0,9.616863E-1,8.934285E-1,8.934285E-1,-3.6074525E-1,-4.1523553E-2,5.3189605E-1,5.7289214E0,9.707742E0,3.963889E0,3.3751237E0,7.2978616E0,-2.1256008E0,7.395339E-2,8.934285E-1,8.934285E-1,1.53068E1,2.1852257E1,-2.184828E-1,-1.5990738E0,2.2790663E0,4.280903E-1,3.610326E0,9.995007E-1,-2.0205228E0,-5.6189615E-1],"split_indices":[20,7,20,4,20,2,2,20,0,20,0,0,0,20,0,0,4,2,2,0,0,15,0,0,0,0,0,0,0],"split_type":[0,0,0,0,0,0,0,0,0,0,0,0,0,0,0,0,0,0,0,0,0,0,0,0,0,0,0,0,0],"sum_hessian":[8.56E2,7.78E2,7.8E1,7.17E2,6.1E1,3E1,4.8E1,7.16E2,1E0,4.7E1,1.4E1,2.8E1,2E0,4.6E1,2E0,3.99E2,3.17E2,1.8E1,2.9E1,1.5E1,3.1E1,2.73E2,4.4E1,1.7E1,1E0,2.7E1,2E0,2.72E2,1E0],"tree_param":{"num_deleted":"0","num_feature":"23","num_nodes":"29","size_leaf_vector":"1"}},{"base_weights":[-5.4848433E0,-2.9498081E1,3.0096606E2,-3.884857E1,7.380424E1,9.16838E0,3.7041333E2,-3.889992E1,-4.0485382E-2,5.261365E1,9.467506E1,1.896171E1,7.0546E0,-3.3959534E1,-1.9717283E0,5.4572174E1,1.189603E0,9.833279E1,1.3269676E0,-9.9123996E-1,-3.4656094E1,2.1741552E0,3.1471775E0,3.1285062E0,5.3248324E0,-1.758419E0,-8.5135216E-1],"categories":[],"categories_nodes":[],"categories_segments":[],"categories_sizes":[],"default_left":[0,0,0,0,0,0,0,0,0,0,0,0,0,0,0,0,0,0,0,0,0,0,0,0,0,0,0],"id":14,"left_children":[1,3,5,7,9,-1,11,13,-1,15,17,-1,-1,19,-1,21,-1,23,-1,-1,25,-1,-1,-1,-1,-1,-1],"loss_changes":[6.278643E6,7.669155E5,4.384255E5,1.386625E3,2.4208281E4,0E0,2.336E4,5.7575E2,0E0,6.7728906E2,5.3654062E3,0E0,0E0,8.091406E1,0E0,2.3360156E2,0E0,2.0953125E3,0E0,0E0,6.0460938E1,0E0,0E0,0E0,0E0,0E0,0E0],"parents":[2147483647,0,0,1,1,2,2,3,3,4,4,6,6,7,7,9,9,10,10,13,13,15,15,17,17,20,20],"right_children":[2,4,6,8,10,-1,12,14,-1,16,18,-1,-1,20,-1,22,-1,24,-1,-1,26,-1,-1,-1,-1,-1,-1],"split_conditions":[1.366681E0,4.4449794E-1,2.232752E0,1.0026704E0,6.55874E-1,9.16838E0,8.934285E-1,3.0394015E-1,-4.0485382E-2,6.254882E-1,8.934285E-1,1.896171E1,7.0546E0,-2.873433E-1,-1.9717283E0,1.2378266E-1,1.189603E0,8.581567E-2,1.3269676E0,-9.9123996E-1,-3.6400393E-1,2.1741552E0,3.1471775E0,3.1285062E0,5.3248324E0,-1.758419E0,-8.5135216E-1],"split_indices":[20,8,5,4,20,0,2,22,0,6,2,0,0,17,0,11,0,10,0,0,9,0,0,0,0,0,0],"split_type":[0,0,0,0,0,0,0,0,0,0,0,0,0,0,0,0,0,0,0,0,0,0,0,0,0,0,0],"sum_hessian":[8.51E2,7.9E2,6.1E1,7.25E2,6.5E1,2.4E1,3.7E1,7.24E2,1E0,3.4E1,3.1E1,3.5E1,2E0,7.7E1,6.47E2,3.1E1,3E0,2.9E1,2E0,5E0,7.2E1,1.6E1,1.5E1,7E0,2.2E1,6.9E1,3E0],"tree_param":{"num_deleted":"0","num_feature":"23","num_nodes":"27","size_leaf_vector":"1"}},{"base_weights":[2.1808114E0,-2.8289688E1,2.8328146E2,-3.693258E1,6.668548E1,1.7014005E2,3.6062454E2,-3.7053642E1,3.9898021E0,5.4737736E1,4.992717E0,8.693175E0,3.5613766E0,1.5439086E1,2.1637741E1,-2.0439522E0,-3.6335995E1,-3.9473344E-2,3.387085E-1,2.0613544E0,6.044846E1,-3.682183E1,-3.1564085E1,6.2559505E1,9.24241E-1,-1.7370176E0,-1.9003485E0,-1.6590294E0,-9.089169E-1,3.1713347E0,9.135979E-1],"categories":[],"categories_nodes":[],"categories_segments":[],"categories_sizes":[],"default_left":[0,0,0,0,0,0,0,0,0,0,0,0,0,0,0,0,0,0,0,0,0,0,0,0,0,0,0,0,0,0,0],"id":15,"left_children":[1,3,5,7,9,11,13,15,17,19,-1,-1,-1,-1,-1,-1,21,-1,-1,-1,23,25,27,29,-1,-1,-1,-1,-1,-1,-1],"loss_changes":[7.357022E6,6.3862944E5,6.737025E5,3.6703125E3,2.029325E4,8.748125E2,4.96055E4,4.61E2,4.526971E1,1.3656562E3,0E0,0E0,0E0,0E0,0E0,0E0,2.426875E2,0E0,0E0,0E0,1.7669766E3,2.1625E1,7.6003516E2,3.1640625E1,0E0,0E0,0E0,0E0,0E0,0E0,0E0],"parents":[2147483647,0,0,1,1,2,2,3,3,4,4,5,5,6,6,7,7,8,8,9,9,16,16,20,20,21,21,22,22,23,23],"right_children":[2,4,6,8,10,12,14,16,18,20,-1,-1,-1,-1,-1,-1,22,-1,-1,-1,24,26,28,30,-1,-1,-1,-1,-1,-1,-1],"split_conditions":[1.1104598E0,-1.853375E-2,2.8626816E0,1.0026704E0,9.616863E-1,2.7672327E0,3.6869707E0,-4.1033643E-1,4.5829162E-1,4.5750928E-1,4.992717E0,8.693175E0,3.5613766E0,1.5439086E1,2.1637741E1,-2.0439522E0,2.5969678E-1,-3.9473344E-2,3.387085E-1,2.0613544E0,2.7672327E0,3.2077605E-1,-3.6565158E-1,7.1519357E-1,9.24241E-1,-1.7370176E0,-1.9003485E0,-1.6590294E0,-9.089169E-1,3.1713347E0,9.135979E-1],"split_indices":[20,18,20,4,20,4,6,20,5,20,0,0,0,0,0,0,4,0,0,0,4,22,18,6,0,0,0,0,0,0,0],"split_type":[0,0,0,0,0,0,0,0,0,0,0,0,0,0,0,0,0,0,0,0,0,0,0,0,0,0,0,0,0,0,0],"sum_hessian":[8.57E2,7.74E2,8.3E1,7.1E2,6.4E1,3.5E1,4.8E1,7.08E2,2E0,4.9E1,1.5E1,3.3E1,2E0,3.1E1,1.7E1,1.03E2,6.05E2,1E0,1E0,1.7E1,3.2E1,5.43E2,6.2E1,3E1,2E0,2.08E2,3.35E2,5.4E1,8E0,2.9E1,1E0],"tree_param":{"num_deleted":"0","num_feature":"23","num_nodes":"31","size_leaf_vector":"1"}},{"base_weights":[2.9666555E0,-2.7417639E1,2.8676425E2,-3.5256943E1,6.541245E1,2.0964566E2,3.7489102E2,-3.53047E1,-3.848648E-2,4.7392414E1,7.9698975E1,1.7528844E2,1.2897199E1,1.9284111E1,6.2015E0,-1.9590319E0,-3.4732574E1,4.8963104E1,8.7293714E-1,8.259628E1,1.2079753E0,8.902863E0,2.3748207E0,-7.2677743E-1,-1.7387074E0,1.8995749E0,5.7856262E1,6.2156345E1,4.7285285E0,6.90921E-1,3.0187273E0,3.2098405E0,8.9075774E-1],"categories":[],"categories_nodes":[],"categories_segments":[],"categories_sizes":[],"default_left":[0,0,0,0,0,0,0,0,0,0,0,0,0,0,0,0,0,0,0,0,0,0,0,0,0,0,0,0,0,0,0,0,0],"id":16,"left_children":[1,3,5,7,9,11,13,15,-1,17,19,21,-1,-1,-1,-1,23,25,-1,27,-1,-1,-1,-1,-1,-1,29,31,-1,-1,-1,-1,-1],"loss_changes":[7.311534E6,5.597422E5,4.786955E5,1.1373125E3,1.1669516E4,3.1117625E4,5.23265E4,2.0475E2,0E0,5.0864453E2,3.1538125E3,2.1579375E3,0E0,0E0,0E0,0E0,1.85E1,4.3640234E2,0E0,1.4644375E3,0E0,0E0,0E0,0E0,0E0,0E0,6.074219E2,1.2299609E2,0E0,0E0,0E0,0E0,0E0],"parents":[2147483647,0,0,1,1,2,2,3,3,4,4,5,5,6,6,7,7,9,9,10,10,11,11,16,16,17,17,19,19,26,26,27,27],"right_children":[2,4,6,8,10,12,14,16,-1,18,20,22,-1,-1,-1,-1,24,26,-1,28,-1,-1,-1,-1,-1,-1,30,32,-1,-1,-1,-1,-1],"split_conditions":[1.2489791E0,4.4449794E-1,3.3751237E0,-2.0368327E-1,6.55874E-1,2.6976552E0,8.934285E-1,-4.186016E-1,-3.848648E-2,6.0248685E-1,8.934285E-1,8.934285E-1,1.2897199E1,1.9284111E1,6.2015E0,-1.9590319E0,-5.306808E-1,1.2378266E-1,8.7293714E-1,3.3382967E-1,1.2079753E0,8.902863E0,2.3748207E0,-7.2677743E-1,-1.7387074E0,1.8995749E0,-3.262902E-2,6.2073386E-1,4.7285285E0,6.90921E-1,3.0187273E0,3.2098405E0,8.9075774E-1],"split_indices":[11,8,20,5,20,11,2,20,0,6,2,2,0,0,0,0,11,11,0,10,0,0,0,0,0,0,10,2,0,0,0,0,0],"split_type":[0,0,0,0,0,0,0,0,0,0,0,0,0,0,0,0,0,0,0,0,0,0,0,0,0,0,0,0,0,0,0,0,0],"sum_hessian":[8.46E2,7.65E2,8.1E1,7.06E2,5.9E1,4.5E1,3.6E1,7.05E2,1E0,2.8E1,3.1E1,2.9E1,1.6E1,3.4E1,2E0,8.2E1,6.23E2,2.6E1,2E0,2.9E1,2E0,2.8E1,1E0,2E0,6.21E2,1.4E1,1.2E1,1.3E1,1.6E1,1E0,1.1E1,1.2E1,1E0],"tree_param":{"num_deleted":"0","num_feature":"23","num_nodes":"33","size_leaf_vector":"1"}},{"base_weights":[-7.0011896E-1,-2.5093687E1,2.5511215E2,-3.3538055E1,6.4765945E1,1.839939E2,3.4782477E2,-3.364507E1,2.896642E0,5.374721E1,9.401239E1,6.1254992E0,2.0582553E2,1.7661375E1,4.6436043E0,-2.9224392E1,-1.7034552E0,-3.7524413E-2,2.5477257E-1,1.9402293E0,2.9176204E0,4.8523884E0,1.1361595E0,2.0939738E2,2.4667459E0,-5.0075966E-1,-2.9648321E1,2.5714118E0,1.0653561E1,-1.5023698E0,-5.559483E-1],"categories":[],"categories_nodes":[],"categories_segments":[],"categories_sizes":[],"default_left":[0,0,0,0,0,0,0,0,0,0,0,0,0,0,0,0,0,0,0,0,0,0,0,0,0,0,0,0,0,0,0],"id":17,"left_children":[1,3,5,7,9,11,13,15,17,19,21,-1,23,-1,-1,25,-1,-1,-1,-1,-1,-1,-1,27,-1,-1,29,-1,-1,-1,-1],"loss_changes":[5.3043095E6,5.9100694E5,4.23926E5,2.8658125E3,1.6538438E4,3.384525E4,9.89525E3,3.315E2,2.7882109E1,1.2451562E3,1.473375E3,0E0,6.99725E3,0E0,0E0,2.6496094E2,0E0,0E0,0E0,0E0,0E0,0E0,0E0,6.45275E3,0E0,0E0,1.6133594E2,0E0,0E0,0E0,0E0],"parents":[2147483647,0,0,1,1,2,2,3,3,4,4,5,5,6,6,7,7,8,8,9,9,10,10,12,12,15,15,23,23,26,26],"right_children":[2,4,6,8,10,12,14,16,18,20,22,-1,24,-1,-1,26,-1,-1,-1,-1,-1,-1,-1,28,-1,-1,30,-1,-1,-1,-1],"split_conditions":[1.2489791E0,-1.853375E-2,3.203942E0,1.0026704E0,5.011543E-1,1.6142368E0,8.934285E-1,3.0304116E-1,4.5829162E-1,5.081812E-1,8.934285E-1,6.1254992E0,8.934285E-1,1.7661375E1,4.6436043E0,-2.895846E-1,-1.7034552E0,-3.7524413E-2,2.5477257E-1,1.9402293E0,2.9176204E0,4.8523884E0,1.1361595E0,1.3251851E0,2.4667459E0,-5.0075966E-1,-3.6486793E-1,2.5714118E0,1.0653561E1,-1.5023698E0,-5.559483E-1],"split_indices":[11,18,6,4,11,8,2,22,5,6,2,0,2,0,0,17,0,0,0,0,0,0,0,10,0,0,9,0,0,0,0],"split_type":[0,0,0,0,0,0,0,0,0,0,0,0,0,0,0,0,0,0,0,0,0,0,0,0,0,0,0,0,0,0,0],"sum_hessian":[8.48E2,7.75E2,7.3E1,7.09E2,6.6E1,4.3E1,3E1,7.07E2,2E0,5E1,1.6E1,1.3E1,3E1,2.9E1,1E0,6.8E1,6.39E2,1E0,1E0,1.4E1,3.6E1,1.5E1,1E0,2.9E1,1E0,2E0,6.6E1,1E0,2.8E1,6.4E1,2E0],"tree_param":{"num_deleted":"0","num_feature":"23","num_nodes":"31","size_leaf_vector":"1"}},{"base_weights":[1.4086921E0,-2.3673449E1,2.5284726E2,-3.151978E1,6.170131E1,1.7914748E2,3.501516E2,-3.1618553E1,2.8242238E0,4.791069E1,8.773163E1,6.0317287E0,1.9576233E2,1.7771723E1,4.527514E0,-2.9220179E1,-3.248443E1,-3.658638E-2,2.4840318E-1,3.8615623E1,5.7137405E1,4.655764E0,1.1298375E0,2.0197961E2,3.105906E0,-9.918726E-1,-2.9708364E1,-1.7416104E0,-3.1543873E1,2.089281E0,1.0542352E0,3.010717E0,9.3021995E-1,3.8747997E0,1.0375548E1,-1.5080947E0,-9.2643446E-1,-1.7058699E0,-1.4766432E0],"categories":[],"categories_nodes":[],"categories_segments":[],"categories_sizes":[],"default_left":[0,0,0,0,0,0,0,0,0,0,0,0,0,0,0,0,0,0,0,0,0,0,0,0,0,0,0,0,0,0,0,0,0,0,0,0,0,0,0],"id":18,"left_children":[1,3,5,7,9,11,13,15,17,19,21,-1,23,-1,-1,25,27,-1,-1,29,31,-1,-1,33,-1,-1,35,-1,37,-1,-1,-1,-1,-1,-1,-1,-1,-1,-1],"loss_changes":[5.4927435E6,5.3248856E5,5.038045E5,2.5520625E3,1.9847984E4,2.2077E4,1.307275E4,5.543125E2,2.6505438E1,1.7387031E3,5.6104844E3,0E0,1.6535E4,0E0,0E0,3.3592188E2,5.61875E1,0E0,0E0,5.638594E2,1.3695703E3,0E0,0E0,6.64125E3,0E0,0E0,4.045E2,0E0,9.7978125E2,0E0,0E0,0E0,0E0,0E0,0E0,0E0,0E0,0E0,0E0],"parents":[2147483647,0,0,1,1,2,2,3,3,4,4,5,5,6,6,7,7,8,8,9,9,10,10,12,12,15,15,16,16,19,19,20,20,23,23,26,26,28,28],"right_children":[2,4,6,8,10,12,14,16,18,20,22,-1,24,-1,-1,26,28,-1,-1,30,32,-1,-1,34,-1,-1,36,-1,38,-1,-1,-1,-1,-1,-1,-1,-1,-1,-1],"split_conditions":[1.2489791E0,-1.853375E-2,3.3143487E0,1.0026704E0,7.450954E-1,1.6665361E0,8.934285E-1,3.2077605E-1,4.5829162E-1,5.366358E-1,8.934285E-1,6.0317287E0,8.934285E-1,1.7771723E1,4.527514E0,-5.537516E-1,-3.904051E-1,-3.658638E-2,2.4840318E-1,6.2563404E-2,8.444436E-1,4.655764E0,1.1298375E0,1.4261059E0,3.105906E0,-9.918726E-1,-3.6400393E-1,-1.7416104E0,-3.8273734E-1,2.089281E0,1.0542352E0,3.010717E0,9.3021995E-1,3.8747997E0,1.0375548E1,-1.5080947E0,-9.2643446E-1,-1.7058699E0,-1.4766432E0],"split_indices":[11,18,6,4,6,7,2,22,5,9,2,0,2,0,0,16,4,0,0,16,5,0,0,10,0,0,9,0,18,0,0,0,0,0,0,0,0,0,0],"split_type":[0,0,0,0,0,0,0,0,0,0,0,0,0,0,0,0,0,0,0,0,0,0,0,0,0,0,0,0,0,0,0,0,0,0,0,0,0,0,0],"sum_hessian":[8.69E2,7.91E2,7.8E1,7.25E2,6.6E1,4.6E1,3.2E1,7.23E2,2E0,4.5E1,2.1E1,1.2E1,3.4E1,3.1E1,1E0,2.01E2,5.22E2,1E0,1E0,2.5E1,2E1,1.9E1,2E0,3.2E1,2E0,1.2E1,1.89E2,1.39E2,3.83E2,2E1,5E0,1.8E1,2E0,2E0,3E1,1.8E2,9E0,1.61E2,2.22E2],"tree_param":{"num_deleted":"0","num_feature":"23","num_nodes":"39","size_leaf_vector":"1"}},{"base_weights":[1.3457574E0,-2.2764467E1,2.452486E2,-3.0277885E1,5.624022E1,7.3560877E0,3.0146854E2,-3.0318464E1,-3.5671808E-2,4.00933E1,7.215079E1,1.2771392E1,1.975184E1,-1.696236E0,-2.9794397E1,2.028997E0,5.765261E-1,5.2163868E1,4.1267047E0,-3.0122185E1,-2.5299736E1,2.6900096E0,7.7229273E-1,-1.5081666E0,-6.070238E-1,-1.3930717E0,-8.031309E-1],"categories":[],"categories_nodes":[],"categories_segments":[],"categories_sizes":[],"default_left":[0,0,0,0,0,0,0,0,0,0,0,0,0,0,0,0,0,0,0,0,0,0,0,0,0,0,0],"id":19,"left_children":[1,3,5,7,9,-1,11,13,-1,15,17,-1,-1,-1,19,-1,-1,21,-1,23,25,-1,-1,-1,-1,-1,-1],"loss_changes":[5.033455E6,4.6411356E5,3.804325E5,8.325625E2,1.4576891E4,0E0,1.05878E5,3.32875E2,0E0,3.2484375E1,2.5432031E3,0E0,0E0,0E0,1.64625E2,0E0,0E0,1.01640625E1,0E0,6.36875E1,7.119453E2,0E0,0E0,0E0,0E0,0E0,0E0],"parents":[2147483647,0,0,1,1,2,2,3,3,4,4,6,6,7,7,9,9,10,10,14,14,17,17,19,19,20,20],"right_children":[2,4,6,8,10,-1,12,14,-1,16,18,-1,-1,-1,20,-1,-1,22,-1,24,26,-1,-1,-1,-1,-1,-1],"split_conditions":[1.3251851E0,4.4449794E-1,2.324693E0,1.0026704E0,6.55874E-1,7.3560877E0,4.090655E0,-4.186016E-1,-3.5671808E-2,2.7672327E0,3.3382967E-1,1.2771392E1,1.975184E1,-1.696236E0,3.5256848E-1,2.028997E0,5.765261E-1,2.3957458E0,4.1267047E0,-2.4550556E-1,-3.8073018E-1,2.6900096E0,7.7229273E-1,-1.5081666E0,-6.070238E-1,-1.3930717E0,-8.031309E-1],"split_indices":[10,8,5,4,20,0,8,20,0,4,10,0,0,0,4,0,0,4,0,21,18,0,0,0,0,0,0],"split_type":[0,0,0,0,0,0,0,0,0,0,0,0,0,0,0,0,0,0,0,0,0,0,0,0,0,0,0],"sum_hessian":[8.54E2,7.78E2,7.6E1,7.11E2,6.7E1,2.9E1,4.7E1,7.1E2,1E0,3.5E1,3.2E1,3.4E1,1.3E1,8.2E1,6.28E2,3.4E1,1E0,1.3E1,1.9E1,5.8E2,4.8E1,1.2E1,1E0,5.78E2,2E0,3.6E1,1.2E1],"tree_param":{"num_deleted":"0","num_feature":"23","num_nodes":"27","size_leaf_vector":"1"}},{"base_weights":[-1.2498847E-2,-2.1994596E1,2.2314769E2,-2.8555405E1,5.4105892E1,1.3721701E2,2.8181064E2,-2.8643372E1,2.5733337E0,3.3995316E1,6.0656628E1,7.0396304E0,2.6669176E0,2.4104692E2,1.7888363E1,-2.4379244E1,-1.451323E0,-3.4779932E-2,2.2777997E-1,4.446724E-1,1.7474377E0,6.2447853E1,6.784667E-1,3.481198E0,1.2211407E1,-6.3784873E-1,-2.5110767E1,6.318259E1,7.529854E-1,-1.2802647E0,-5.7694095E-1,2.7030883E0,3.7882593E0],"categories":[],"categories_nodes":[],"categories_segments":[],"categories_sizes":[],"default_left":[0,0,0,0,0,0,0,0,0,0,0,0,0,0,0,0,0,0,0,0,0,0,0,0,0,0,0,0,0,0,0,0,0],"id":20,"left_children":[1,3,5,7,9,11,13,15,17,19,21,-1,-1,23,-1,25,-1,-1,-1,-1,-1,27,-1,-1,-1,-1,29,31,-1,-1,-1,-1,-1],"loss_changes":[4.321774E6,4.0196812E5,3.5956575E5,2.0973125E3,6.36925E3,2.6875E3,5.619E4,4.963125E2,2.2608545E1,1.1998047E2,3.1167969E3,0E0,0E0,9.91875E2,0E0,2.4928906E2,0E0,0E0,0E0,0E0,0E0,6.1528125E2,0E0,0E0,0E0,0E0,1.20671875E2,9.5359375E2,0E0,0E0,0E0,0E0,0E0],"parents":[2147483647,0,0,1,1,2,2,3,3,4,4,5,5,6,6,7,7,8,8,9,9,10,10,13,13,15,15,21,21,26,26,27,27],"right_children":[2,4,6,8,10,12,14,16,18,20,22,-1,-1,24,-1,26,-1,-1,-1,-1,-1,28,-1,-1,-1,-1,30,32,-1,-1,-1,-1,-1],"split_conditions":[1.1104598E0,-1.853375E-2,2.8626816E0,1.0026704E0,5.3189605E-1,8.934285E-1,4.090655E0,3.0304116E-1,4.5829162E-1,-8.827227E-2,8.934285E-1,7.0396304E0,2.6669176E0,2.6976552E0,1.7888363E1,-2.873433E-1,-1.451323E0,-3.4779932E-2,2.2777997E-1,4.446724E-1,1.7474377E0,1.0916398E0,6.784667E-1,3.481198E0,1.2211407E1,-6.3784873E-1,-3.6400393E-1,6.411805E-1,7.529854E-1,-1.2802647E0,-5.7694095E-1,2.7030883E0,3.7882593E0],"split_indices":[20,18,20,4,20,2,8,22,5,2,2,0,0,11,0,21,0,0,0,0,0,16,0,0,0,0,9,9,0,0,0,0,0],"split_type":[0,0,0,0,0,0,0,0,0,0,0,0,0,0,0,0,0,0,0,0,0,0,0,0,0,0,0,0,0,0,0,0,0],"sum_hessian":[8.79E2,8.01E2,7.8E1,7.38E2,6.3E1,3.3E1,4.5E1,7.36E2,2E0,1.7E1,4.6E1,3.1E1,2E0,3.2E1,1.3E1,6.6E1,6.7E2,1E0,1E0,1E0,1.6E1,4.4E1,2E0,1E0,3.1E1,5E0,6.1E1,4.3E1,1E0,5.8E1,3E0,2.8E1,1.5E1],"tree_param":{"num_deleted":"0","num_feature":"23","num_nodes":"33","size_leaf_vector":"1"}},{"base_weights":[1.4043275E0,-2.0367716E1,2.1140776E2,-2.7068459E1,5.244432E1,6.396009E0,2.73965E2,-2.7153748E1,2.509E0,4.4165565E1,7.60725E1,1.1926058E1,1.6897116E1,-1.4667326E0,-2.626366E1,-3.391037E-2,2.2208539E-1,3.0292671E1,4.8479458E1,3.9466755E0,8.289345E-1,-2.6836082E1,-2.2175905E1,4.335556E-1,3.1217703E1,2.5039837E0,6.558511E-1,-1.3437846E0,-2.2233926E-1,-1.1857073E0,-8.207323E-1,1.6954968E0,8.00482E-1],"categories":[],"categories_nodes":[],"categories_segments":[],"categories_sizes":[],"default_left":[0,0,0,0,0,0,0,0,0,0,0,0,0,0,0,0,0,0,0,0,0,0,0,0,0,0,0,0,0,0,0,0,0],"id":21,"left_children":[1,3,5,7,9,-1,11,13,15,17,19,-1,-1,-1,21,-1,-1,23,25,-1,-1,27,29,-1,31,-1,-1,-1,-1,-1,-1,-1,-1],"loss_changes":[3.9912678E6,3.873443E5,3.9322E5,1.897E3,9.746219E3,0E0,2.370325E4,6.330625E2,2.149222E1,1.6434219E3,1.4147812E3,0E0,0E0,0E0,6.28625E2,0E0,0E0,2.9317383E1,1.4934375E3,0E0,0E0,2.8315625E2,2.3109766E2,0E0,3.0325195E1,0E0,0E0,0E0,0E0,0E0,0E0,0E0,0E0],"parents":[2147483647,0,0,1,1,2,2,3,3,4,4,6,6,7,7,8,8,9,9,10,10,14,14,17,17,18,18,21,21,22,22,24,24],"right_children":[2,4,6,8,10,-1,12,14,16,18,20,-1,-1,-1,22,-1,-1,24,26,-1,-1,28,30,-1,32,-1,-1,-1,-1,-1,-1,-1,-1],"split_conditions":[1.366681E0,-1.853375E-2,3.0536158E0,1.0026704E0,9.616863E-1,6.396009E0,4.3752127E0,-3.9380604E-1,4.5829162E-1,4.5750928E-1,2.581489E0,1.1926058E1,1.6897116E1,-1.4667326E0,1.6682509E-1,-3.391037E-2,2.2208539E-1,1.0955421E0,2.7672327E0,3.9466755E0,8.289345E-1,-1.4924435E-1,-3.6565158E-1,4.335556E-1,1.029764E-1,2.5039837E0,6.558511E-1,-1.3437846E0,-2.2233926E-1,-1.1857073E0,-8.207323E-1,1.6954968E0,8.00482E-1],"split_indices":[20,18,11,4,20,0,20,20,5,20,4,0,0,0,4,0,0,4,4,0,0,11,18,0,10,0,0,0,0,0,0,0,0],"split_type":[0,0,0,0,0,0,0,0,0,0,0,0,0,0,0,0,0,0,0,0,0,0,0,0,0,0,0,0,0,0,0,0,0],"sum_hessian":[8.71E2,7.9E2,8.1E1,7.24E2,6.6E1,3.6E1,4.5E1,7.22E2,2E0,5.1E1,1.5E1,3.2E1,1.3E1,2E2,5.22E2,1E0,1E0,1.4E1,3.7E1,1.4E1,1E0,4.53E2,6.9E1,1E0,1.3E1,3.5E1,2E0,4.52E2,1E0,5.2E1,1.7E1,1E1,3E0],"tree_param":{"num_deleted":"0","num_feature":"23","num_nodes":"33","size_leaf_vector":"1"}},{"base_weights":[1.0187881E0,-1.897282E1,2.0838483E2,-2.5967342E1,5.214273E1,1.4916574E2,2.7923438E2,-1.4826354E0,-2.5444782E1,4.158507E1,4.016618E0,5.0699744E0,1.6438496E2,1.4422061E1,4.550951E0,-2.5831182E1,-2.0461388E1,2.952626E1,4.5568123E1,1.6748903E2,1.781572E0,-2.405926E1,-2.6745275E1,-1.169939E0,-1.1236749E1,4.2271653E-1,1.5183717E0,2.3114035E0,5.28755E-1,3.1064057E0,8.639797E0,-1.0169569E0,-1.2557231E0,-1.4422021E0,-1.2480193E0,-5.9996915E-1,-3.3062555E-2],"categories":[],"categories_nodes":[],"categories_segments":[],"categories_sizes":[],"default_left":[0,0,0,0,0,0,0,0,0,0,0,0,0,0,0,0,0,0,0,0,0,0,0,0,0,0,0,0,0,0,0,0,0,0,0,0,0],"id":22,"left_children":[1,3,5,7,9,11,13,-1,15,17,-1,-1,19,-1,-1,21,23,25,27,29,-1,31,33,-1,35,-1,-1,-1,-1,-1,-1,-1,-1,-1,-1,-1,-1],"loss_changes":[3.5359885E6,3.8834622E5,2.73021E5,6.1090625E2,1.7492531E4,1.45909375E4,3.093125E4,0E0,6.8071875E2,1.2001797E3,0E0,0E0,6.4215625E3,0E0,0E0,2.9434375E2,1.0918926E3,2.686621E1,3.886875E2,6.03875E3,0E0,3.0176562E2,6.7734375E2,0E0,1.0497864E2,0E0,0E0,0E0,0E0,0E0,0E0,0E0,0E0,0E0,0E0,0E0,0E0],"parents":[2147483647,0,0,1,1,2,2,3,3,4,4,5,5,6,6,8,8,9,9,12,12,15,15,16,16,17,17,18,18,19,19,21,21,22,22,24,24],"right_children":[2,4,6,8,10,12,14,-1,16,18,-1,-1,20,-1,-1,22,24,26,28,30,-1,32,34,-1,36,-1,-1,-1,-1,-1,-1,-1,-1,-1,-1,-1,-1],"split_conditions":[1.5288602E0,4.4449794E-1,3.3751237E0,-4.186016E-1,5.011543E-1,1.8212668E0,8.934285E-1,-1.4826354E0,3.5256848E-1,4.5750928E-1,4.016618E0,5.0699744E0,8.934285E-1,1.4422061E1,4.550951E0,3.2077605E-1,-3.790821E-1,-8.827227E-2,8.934285E-1,1.4261059E0,1.781572E0,-7.972784E-1,-2.975334E-1,-1.169939E0,-1.0513918E-2,4.2271653E-1,1.5183717E0,2.3114035E0,5.28755E-1,3.1064057E0,8.639797E0,-1.0169569E0,-1.2557231E0,-1.4422021E0,-1.2480193E0,-5.9996915E-1,-3.3062555E-2],"split_indices":[9,8,20,20,11,20,2,0,4,20,0,0,2,0,0,22,18,2,2,10,0,2,4,0,1,0,0,0,0,0,0,0,0,0,0,0,0],"split_type":[0,0,0,0,0,0,0,0,0,0,0,0,0,0,0,0,0,0,0,0,0,0,0,0,0,0,0,0,0,0,0,0,0,0,0,0,0],"sum_hessian":[8.51E2,7.77E2,7.4E1,7.08E2,6.9E1,4.2E1,3.2E1,8.1E1,6.27E2,5.2E1,1.7E1,1.2E1,3E1,3E1,2E0,5.78E2,4.9E1,1.5E1,3.7E1,2.9E1,1E0,2.06E2,3.72E2,3.6E1,1.3E1,1E0,1.4E1,3.6E1,1E0,2E0,2.7E1,5E1,1.56E2,1.64E2,2.08E2,1.2E1,1E0],"tree_param":{"num_deleted":"0","num_feature":"23","num_nodes":"37","size_leaf_vector":"1"}},{"base_weights":[2.3484263E0,-1.8648312E1,1.9129239E2,-2.4642378E1,4.8772114E1,1.1530826E2,2.416793E2,-2.4719688E1,2.2810466E0,3.714003E1,6.376764E1,4.428142E0,6.799241E0,2.0794635E2,1.494487E1,-1.334123E0,-2.3847197E1,-3.223591E-2,2.0331441E-1,2.8323E1,2.0472324E0,6.726381E1,6.688502E-1,3.018274E0,1.0521911E1,-2.4252922E1,-1.9097713E1,1.5021397E0,5.714778E-1,3.4973583E0,1.2135079E0,-1.0521472E0,-1.2415624E0,-1.0360928E0,-4.497912E-1],"categories":[],"categories_nodes":[],"categories_segments":[],"categories_sizes":[],"default_left":[0,0,0,0,0,0,0,0,0,0,0,0,0,0,0,0,0,0,0,0,0,0,0,0,0,0,0,0,0,0,0,0,0,0,0],"id":23,"left_children":[1,3,5,7,9,11,13,15,17,19,21,-1,-1,23,-1,-1,25,-1,-1,27,-1,29,-1,-1,-1,31,33,-1,-1,-1,-1,-1,-1,-1,-1],"loss_changes":[3.490742E6,3.212668E5,3.0904975E5,1.5717188E3,8.9695625E3,8.417969E3,3.821225E4,6.069375E2,1.8291199E1,1.4860156E2,3.8569219E3,0E0,0E0,5.36E2,0E0,0E0,5.234375E2,0E0,0E0,9.2421875E1,0E0,1.1865625E3,0E0,0E0,0E0,3.4628125E2,5.519004E2,0E0,0E0,0E0,0E0,0E0,0E0,0E0,0E0],"parents":[2147483647,0,0,1,1,2,2,3,3,4,4,5,5,6,6,7,7,8,8,9,9,10,10,13,13,16,16,19,19,21,21,25,25,26,26],"right_children":[2,4,6,8,10,12,14,16,18,20,22,-1,-1,24,-1,-1,26,-1,-1,28,-1,30,-1,-1,-1,32,34,-1,-1,-1,-1,-1,-1,-1,-1],"split_conditions":[1.366681E0,-1.853375E-2,2.868122E0,1.0026704E0,6.382429E-1,1.8212668E0,4.1590667E0,-3.9380604E-1,4.8057958E-1,4.5750928E-1,8.934285E-1,4.428142E0,6.799241E0,2.6976552E0,1.494487E1,-1.334123E0,2.5969678E-1,-3.223591E-2,2.0331441E-1,4.8057958E-1,2.0472324E0,1.0916398E0,6.688502E-1,3.018274E0,1.0521911E1,3.0394015E-1,-3.1941926E-1,1.5021397E0,5.714778E-1,3.4973583E0,1.2135079E0,-1.0521472E0,-1.2415624E0,-1.0360928E0,-4.497912E-1],"split_indices":[20,18,6,4,9,20,9,20,6,20,2,0,0,11,0,0,4,0,0,6,0,16,0,0,0,22,20,0,0,0,0,0,0,0,0],"split_type":[0,0,0,0,0,0,0,0,0,0,0,0,0,0,0,0,0,0,0,0,0,0,0,0,0,0,0,0,0,0,0,0,0,0,0],"sum_hessian":[8.78E2,7.91E2,8.7E1,7.27E2,6.4E1,3.6E1,5.1E1,7.25E2,2E0,3.8E1,2.6E1,1.8E1,1.8E1,3.5E1,1.6E1,2.14E2,5.11E2,1E0,1E0,1.4E1,2.4E1,2.4E1,2E0,1E0,3.4E1,4.67E2,4.4E1,1.2E1,2E0,2.2E1,2E0,7.7E1,3.9E2,3.7E1,7E0],"tree_param":{"num_deleted":"0","num_feature":"23","num_nodes":"35","size_leaf_vector":"1"}},{"base_weights":[-8.506361E-1,-1.8230461E1,1.754415E2,-2.3495493E1,4.4299335E1,1.1018685E2,2.2187823E2,-1.3057575E0,-2.300151E1,3.751007E1,6.2619087E1,1.13320786E2,2.0014598E0,1.929645E2,1.3799149E1,-2.3139322E1,-1.3330835E1,8.365303E-1,3.854661E1,3.259631E0,6.647404E-1,4.569669E0,6.603948E0,9.886588E0,4.048522E0,-4.4639072E-1,-2.3195312E1,-6.1729338E-2,-1.4417002E1,1.982637E0,8.7860626E-1,-3.6881447E-1,-1.1617875E0,-2.137721E-1,-7.534396E-1],"categories":[],"categories_nodes":[],"categories_segments":[],"categories_sizes":[],"default_left":[0,0,0,0,0,0,0,0,0,0,0,0,0,0,0,0,0,0,0,0,0,0,0,0,0,0,0,0,0,0,0,0,0,0,0],"id":24,"left_children":[1,3,5,7,9,11,13,-1,15,17,19,21,-1,23,-1,25,27,-1,29,-1,-1,-1,-1,-1,-1,-1,31,-1,33,-1,-1,-1,-1,-1,-1],"loss_changes":[2.6289838E6,2.5816266E5,2.0887825E5,3.32375E2,5.2381875E3,2.9394375E3,1.55775E4,0E0,5.11125E2,3.6741406E2,1.0373438E3,1.0910312E3,0E0,1.0745E3,0E0,2.743125E2,1.2672485E2,0E0,3.2404297E2,0E0,0E0,0E0,0E0,0E0,0E0,0E0,2.136875E2,0E0,1.6760254E0,0E0,0E0,0E0,0E0,0E0,0E0],"parents":[2147483647,0,0,1,1,2,2,3,3,4,4,5,5,6,6,8,8,9,9,10,10,11,11,13,13,15,15,16,16,18,18,26,26,28,28],"right_children":[2,4,6,8,10,12,14,-1,16,18,20,22,-1,24,-1,26,28,-1,30,-1,-1,-1,-1,-1,-1,-1,32,-1,34,-1,-1,-1,-1,-1,-1],"split_conditions":[1.1269902E0,2.3763332E-1,2.8626816E0,-4.1033643E-1,9.5950365E-1,8.934285E-1,4.1590667E0,-1.3057575E0,-3.612391E-1,-1.007497E-1,8.934285E-1,1.6441603E0,2.0014598E0,8.934285E-1,1.3799149E1,2.766227E-1,-4.3353567E-1,8.365303E-1,8.598149E-1,3.259631E0,6.647404E-1,4.569669E0,6.603948E0,9.886588E0,4.048522E0,-4.4639072E-1,-5.306808E-1,-6.1729338E-2,-3.6020228E-1,1.982637E0,8.7860626E-1,-3.6881447E-1,-1.1617875E0,-2.137721E-1,-7.534396E-1],"split_indices":[20,5,20,20,8,2,9,0,9,10,2,10,0,2,0,22,5,0,16,0,0,0,0,0,0,0,11,0,9,0,0,0,0,0,0],"split_type":[0,0,0,0,0,0,0,0,0,0,0,0,0,0,0,0,0,0,0,0,0,0,0,0,0,0,0,0,0,0,0,0,0,0,0],"sum_hessian":[8.56E2,7.8E2,7.6E1,7.2E2,6E1,3.3E1,4.3E1,1.06E2,6.14E2,4.6E1,1.4E1,3.1E1,2E0,3.1E1,1.2E1,6.04E2,1E1,3E0,4.3E1,1.3E1,1E0,1.7E1,1.4E1,2.9E1,2E0,3E0,6.01E2,1E0,9E0,4E1,3E0,2E0,5.99E2,1E0,8E0],"tree_param":{"num_deleted":"0","num_feature":"23","num_nodes":"35","size_leaf_vector":"1"}},{"base_weights":[1.4063019E0,-1.5231688E1,2.0683896E2,-2.2115803E1,5.103575E1,1.4622299E2,2.5329051E2,-2.2181046E1,1.2842966E0,3.4006374E1,7.392061E1,1.6093148E0,7.4475665E0,1.2854166E1,3.0135696E0,-1.9110329E1,-2.2541534E1,-5.234337E-2,1.4866562E-1,3.514468E1,6.6339844E-1,6.48122E-1,7.5468864E1,-1.17103E1,-2.0181023E1,-2.1665491E1,-2.3592999E1,2.5286201E1,3.903201E1,9.767632E-1,3.834107E0,-1.9974475E-1,-6.812717E-1,-1.3126564E-1,-1.0195655E0,-1.2265466E0,-1.0514853E0,-1.1827652E0,-4.9152294E-1,1.3662722E0,6.423462E-1,9.5775473E-1,2.0294383E0],"categories":[],"categories_nodes":[],"categories_segments":[],"categories_sizes":[],"default_left":[0,0,0,0,0,0,0,0,0,0,0,0,0,0,0,0,0,0,0,0,0,0,0,0,0,0,0,0,0,0,0,0,0,0,0,0,0,0,0,0,0,0,0],"id":25,"left_children":[1,3,5,7,9,11,13,15,17,19,21,-1,-1,-1,-1,23,25,-1,-1,27,-1,-1,29,31,33,35,37,39,41,-1,-1,-1,-1,-1,-1,-1,-1,-1,-1,-1,-1,-1,-1],"loss_changes":[3.0109788E6,3.7292575E5,1.487995E5,1.1567188E3,2.7494266E4,4.8509375E3,1.086025E4,3.850625E2,1.4924782E1,6.1960547E2,2.0418438E3,0E0,0E0,0E0,0E0,4.2922266E2,9.125E1,0E0,0E0,6.609219E2,0E0,0E0,6.0575E2,1.37656E2,2.1227148E2,1.56375E2,1.26875E1,2.9453125E1,1.1988281E2,0E0,0E0,0E0,0E0,0E0,0E0,0E0,0E0,0E0,0E0,0E0,0E0,0E0,0E0],"parents":[2147483647,0,0,1,1,2,2,3,3,4,4,5,5,6,6,7,7,8,8,9,9,10,10,15,15,16,16,19,19,22,22,23,23,24,24,25,25,26,26,27,27,28,28],"right_children":[2,4,6,8,10,12,14,16,18,20,22,-1,-1,-1,-1,24,26,-1,-1,28,-1,-1,30,32,34,36,38,40,42,-1,-1,-1,-1,-1,-1,-1,-1,-1,-1,-1,-1,-1,-1],"split_conditions":[1.8212668E0,-1.853375E-2,3.3143487E0,-2.8076583E-1,9.616863E-1,1.3251851E0,8.934285E-1,3.0394015E-1,4.8057958E-1,7.7651304E-1,-2.1487434E-1,1.6093148E0,7.4475665E0,1.2854166E1,3.0135696E0,-2.828607E-1,-3.7419918E-1,-5.234337E-2,1.4866562E-1,4.5750928E-1,6.6339844E-1,6.48122E-1,5.011543E-1,-3.9577267E-1,-3.98411E-1,-3.9076093E-1,-3.5657346E-1,5.4618996E-1,-5.2553818E-2,9.767632E-1,3.834107E0,-1.9974475E-1,-6.812717E-1,-1.3126564E-1,-1.0195655E0,-1.2265466E0,-1.0514853E0,-1.1827652E0,-4.9152294E-1,1.3662722E0,6.423462E-1,9.5775473E-1,2.0294383E0],"split_indices":[20,18,6,6,20,10,2,22,6,14,17,0,0,0,0,17,9,0,0,20,0,0,11,6,7,18,9,14,10,0,0,0,0,0,0,0,0,0,0,0,0,0,0],"split_type":[0,0,0,0,0,0,0,0,0,0,0,0,0,0,0,0,0,0,0,0,0,0,0,0,0,0,0,0,0,0,0,0,0,0,0,0,0,0,0,0,0,0,0],"sum_hessian":[8.79E2,8.14E2,6.5E1,7.38E2,7.6E1,3E1,3.5E1,7.36E2,2E0,4.5E1,3.1E1,1E0,2.9E1,3.4E1,1E0,8.3E1,6.53E2,1E0,1E0,4.2E1,3E0,1E0,3E1,1.2E1,7.1E1,3.68E2,2.85E2,1.4E1,2.8E1,1E0,2.9E1,3E0,9E0,1E0,7E1,6E1,3.08E2,2.83E2,2E0,1.1E1,3E0,3E0,2.5E1],"tree_param":{"num_deleted":"0","num_feature":"23","num_nodes":"43","size_leaf_vector":"1"}},{"base_weights":[2.2517654E-1,-1.5645025E1,1.599548E2,-2.09221E1,4.043096E1,9.967001E1,2.0290318E2,-1.882317E1,-2.1456358E1,3.0086645E1,4.9029003E1,1.0262429E2,1.7467164E0,1.0244431E1,2.9382303E0,4.9957147E-1,-1.9084137E1,-2.3220554E1,-2.05191E1,3.1815512E1,1.4041895E1,5.0904934E1,6.025388E-1,3.8077958E0,5.9489965E0,-1.24322794E-1,1.6179065E-1,-1.4279024E1,-1.9930927E1,-2.3289913E1,-2.5972995E-1,-1.1332335E0,-1.937282E1,2.2715752E1,3.5409294E1,2.4354199E-1,9.266159E-1,2.7674663E0,1.5048772E0,-7.6601917E-1,-2.3607282E-1,-3.7994337E-1,-1.0190719E0,-1.1015338E0,-1.2898629E0,-9.9602985E-1,-7.583561E-1,1.2125298E0,1.8418275E-1,5.2168554E-1,1.8866924E0],"categories":[],"categories_nodes":[],"categories_segments":[],"categories_sizes":[],"default_left":[0,0,0,0,0,0,0,0,0,0,0,0,0,0,0,0,0,0,0,0,0,0,0,0,0,0,0,0,0,0,0,0,0,0,0,0,0,0,0,0,0,0,0,0,0,0,0,0,0,0,0],"id":26,"left_children":[1,3,5,7,9,11,13,15,17,19,21,23,-1,-1,-1,25,27,29,31,33,35,37,-1,-1,-1,-1,-1,39,41,43,-1,-1,45,47,49,-1,-1,-1,-1,-1,-1,-1,-1,-1,-1,-1,-1,-1,-1,-1,-1],"loss_changes":[2.1597378E6,2.3018172E5,1.7913988E5,3.911875E2,4.483914E3,2.9173125E3,5.51625E2,7.760117E2,4.461875E2,4.6864648E2,1.8144609E3,4.792E3,0E0,0E0,0E0,3.2557186E1,3.2573828E2,1.1157031E2,4.7829688E2,1.4402344E2,1.156416E2,1.3858359E3,0E0,0E0,0E0,0E0,0E0,1.8643945E2,5.3959375E2,1.578125E1,0E0,0E0,2.738125E2,2.3199365E2,7.093828E2,0E0,0E0,0E0,0E0,0E0,0E0,0E0,0E0,0E0,0E0,0E0,0E0,0E0,0E0,0E0,0E0],"parents":[2147483647,0,0,1,1,2,2,3,3,4,4,5,5,6,6,7,7,8,8,9,9,10,10,11,11,15,15,16,16,17,17,18,18,19,19,20,20,21,21,27,27,28,28,29,29,32,32,33,33,34,34],"right_children":[2,4,6,8,10,12,14,16,18,20,22,24,-1,-1,-1,26,28,30,32,34,36,38,-1,-1,-1,-1,-1,40,42,44,-1,-1,46,48,50,-1,-1,-1,-1,-1,-1,-1,-1,-1,-1,-1,-1,-1,-1,-1,-1],"split_conditions":[1.366681E0,1.0026704E0,3.2015548E0,3.1374747E-1,6.55874E-1,8.934285E-1,8.934285E-1,-3.0452666E-1,-3.904051E-1,6.254882E-1,8.934285E-1,1.6441603E0,1.7467164E0,1.0244431E1,2.9382303E0,-1.0154341E0,-2.8883752E-1,-3.152679E-1,-4.0207124E-1,8.581567E-2,7.300316E-1,3.7920228E-1,6.025388E-1,3.8077958E0,5.9489965E0,-1.24322794E-1,1.6179065E-1,-3.652945E-1,-4.9402678E-1,3.3663118E-1,-2.5972995E-1,-1.1332335E0,3.5256848E-1,5.502326E-1,3.996529E-1,2.4354199E-1,9.266159E-1,2.7674663E0,1.5048772E0,-7.6601917E-1,-2.3607282E-1,-3.7994337E-1,-1.0190719E0,-1.1015338E0,-1.2898629E0,-9.9602985E-1,-7.583561E-1,1.2125298E0,1.8418275E-1,5.2168554E-1,1.8866924E0],"split_indices":[20,4,20,22,20,2,2,21,4,6,2,10,0,0,0,2,21,6,20,10,1,16,0,0,0,0,0,8,10,22,0,0,4,5,20,0,0,0,0,0,0,0,0,0,0,0,0,0,0,0,0],"split_type":[0,0,0,0,0,0,0,0,0,0,0,0,0,0,0,0,0,0,0,0,0,0,0,0,0,0,0,0,0,0,0,0,0,0,0,0,0,0,0,0,0,0,0,0,0,0,0,0,0,0,0],"sum_hessian":[8.5E2,7.74E2,7.6E1,7.08E2,6.6E1,3.3E1,4.3E1,1.51E2,5.57E2,3.2E1,3.4E1,3.1E1,2E0,4.2E1,1E0,2E0,1.49E2,1.85E2,3.72E2,2.8E1,4E0,3.2E1,2E0,1.4E1,1.7E1,1E0,1E0,2.5E1,1.24E2,1.84E2,1E0,1.23E2,2.49E2,1E1,1.8E1,2E0,2E0,2.5E1,7E0,2.2E1,3E0,5E0,1.19E2,1.29E2,5.5E1,2.17E2,3.2E1,9E0,1E0,2E0,1.6E1],"tree_param":{"num_deleted":"0","num_feature":"23","num_nodes":"51","size_leaf_vector":"1"}},{"base_weights":[1.5394562E0,-1.5589548E1,1.5393118E2,-2.0194378E1,3.6458378E1,1.0800359E2,2.2369841E2,-2.0251547E1,2.1911366E-1,2.8209328E1,4.486699E1,8.0956024E1,1.311939E2,1.7620952E2,1.3305514E1,-1.848701E1,-2.0911184E1,-8.134804E-2,9.778156E-2,2.0681328E1,3.224317E1,6.5539026E-1,4.7910313E1,4.547037E0,2.694473E0,1.6884927E0,6.8694606E0,3.7151775E0,9.191383E0,-9.74462E0,-1.8982655E1,-2.314419E1,-2.0151482E1,1.2894088E0,7.205705E-1,1.7592884E0,1.9022375E1,2.4486303E0,5.0726664E-1,-5.211745E-1,-3.9954662E-2,-9.688255E-1,-4.4106564E-1,-1.1743443E0,-5.1453406E-1,-1.1285104E0,-9.588057E-1,9.748268E-2,1.1023494E0],"categories":[],"categories_nodes":[],"categories_segments":[],"categories_sizes":[],"default_left":[0,0,0,0,0,0,0,0,0,0,0,0,0,0,0,0,0,0,0,0,0,0,0,0,0,0,0,0,0,0,0,0,0,0,0,0,0,0,0,0,0,0,0,0,0,0,0,0,0],"id":27,"left_children":[1,3,5,7,9,11,13,15,17,19,21,23,25,27,-1,29,31,-1,-1,33,35,-1,37,-1,-1,-1,-1,-1,-1,39,41,43,45,-1,-1,-1,47,-1,-1,-1,-1,-1,-1,-1,-1,-1,-1,-1,-1],"loss_changes":[2.273377E6,1.8839933E5,2.5781262E5,8.446875E2,3.1735703E3,2.3877312E4,2.1588125E4,4.49125E2,1.2798957E1,3.9600586E2,2.2716094E3,2.6662969E3,1.2260406E4,1.0913125E3,0E0,6.9897656E2,4.0726562E2,0E0,0E0,1.08648926E2,1.4765625E2,0E0,5.863281E2,0E0,0E0,0E0,0E0,0E0,0E0,7.0617676E1,5.974844E2,3.045078E2,4.9196875E2,0E0,0E0,0E0,2.6684644E2,0E0,0E0,0E0,0E0,0E0,0E0,0E0,0E0,0E0,0E0,0E0,0E0],"parents":[2147483647,0,0,1,1,2,2,3,3,4,4,5,5,6,6,7,7,8,8,9,9,10,10,11,11,12,12,13,13,15,15,16,16,19,19,20,20,22,22,29,29,30,30,31,31,32,32,36,36],"right_children":[2,4,6,8,10,12,14,16,18,20,22,24,26,28,-1,30,32,-1,-1,34,36,-1,38,-1,-1,-1,-1,-1,-1,40,42,44,46,-1,-1,-1,48,-1,-1,-1,-1,-1,-1,-1,-1,-1,-1,-1,-1],"split_conditions":[1.1269902E0,-1.853375E-2,3.3751237E0,2.3763332E-1,6.3475037E-1,1.8376606E0,4.090655E0,3.2077605E-1,4.5829162E-1,1.0395144E-1,-2.1487434E-1,3.7920228E-1,-6.844222E-2,4.5864496E-2,1.3305514E1,-5.480973E-1,-7.510595E-1,-8.134804E-2,9.778156E-2,4.3917713E-1,6.0248685E-1,6.5539026E-1,1.0916398E0,4.547037E0,2.694473E0,1.6884927E0,6.8694606E0,3.7151775E0,9.191383E0,-3.609051E-1,-3.6400393E-1,-3.612391E-1,-4.1033643E-1,1.2894088E0,7.205705E-1,1.7592884E0,5.778149E-1,2.4486303E0,5.0726664E-1,-5.211745E-1,-3.9954662E-2,-9.688255E-1,-4.4106564E-1,-1.1743443E0,-5.1453406E-1,-1.1285104E0,-9.588057E-1,9.748268E-2,1.1023494E0],"split_indices":[20,18,20,5,8,6,8,22,5,11,17,16,17,17,0,16,1,0,0,6,6,0,16,0,0,0,0,0,0,7,9,9,20,0,0,0,5,0,0,0,0,0,0,0,0,0,0,0,0],"split_type":[0,0,0,0,0,0,0,0,0,0,0,0,0,0,0,0,0,0,0,0,0,0,0,0,0,0,0,0,0,0,0,0,0,0,0,0,0,0,0,0,0,0,0,0,0,0,0,0,0],"sum_hessian":[8.69E2,7.82E2,8.7E1,7.19E2,6.3E1,5.4E1,3.3E1,7.17E2,2E0,3.4E1,2.9E1,2.7E1,2.7E1,1.8E1,1.5E1,2.03E2,5.14E2,1E0,1E0,1.4E1,2E1,3E0,2.6E1,1.8E1,9E0,2E0,2.5E1,2E0,1.6E1,1.2E1,1.91E2,1.23E2,3.91E2,6E0,8E0,1.5E1,5E0,2.5E1,1E0,1.1E1,1E0,1.83E2,8E0,1.19E2,4E0,1.06E2,2.85E2,1E0,4E0],"tree_param":{"num_deleted":"0","num_feature":"23","num_nodes":"49","size_leaf_vector":"1"}},{"base_weights":[1.0056989E0,-1.381148E1,1.6233434E2,4.147708E1,-1.9205029E1,9.0474815E1,2.0098375E2,3.0462456E1,5.514784E1,-2.2115126E0,-1.9273525E1,9.37955E1,1.6322092E0,8.32608E0,1.24988365E1,2.0811218E1,3.5230045E1,2.8942833E0,5.606077E-1,-2.1099225E-1,9.533711E-2,-1.148888E0,-1.8995134E1,2.6018367E0,4.9635806E0,2.2828798E1,5.9033906E-1,2.3218237E1,3.9278725E1,-1.9391523E1,-1.6048248E1,3.3479118E-1,1.1843361E0,1.3088639E0,4.2871985E-1,2.0173995E0,5.275322E-1,-9.130418E-1,-1.0293571E0,-8.8122433E-1,-5.0221235E-1],"categories":[],"categories_nodes":[],"categories_segments":[],"categories_sizes":[],"default_left":[0,0,0,0,0,0,0,0,0,0,0,0,0,0,0,0,0,0,0,0,0,0,0,0,0,0,0,0,0,0,0,0,0,0,0,0,0,0,0,0,0],"id":28,"left_children":[1,3,5,7,9,11,13,15,17,19,21,23,-1,-1,-1,25,27,-1,-1,-1,-1,-1,29,-1,-1,31,-1,33,35,37,39,-1,-1,-1,-1,-1,-1,-1,-1,-1,-1],"loss_changes":[2.0460642E6,2.3458661E5,1.817835E5,8.860539E3,7.89625E2,2.1231094E3,3.6040125E4,1.1533594E3,2.9596328E3,4.1129448E1,2.9778125E2,5.511406E2,0E0,0E0,0E0,2.1140625E1,3.5244922E2,0E0,0E0,0E0,0E0,0E0,4.6909375E2,0E0,0E0,7.487793E0,0E0,1.6553125E2,1.2722461E2,4.135625E2,6.2739453E2,0E0,0E0,0E0,0E0,0E0,0E0,0E0,0E0,0E0,0E0],"parents":[2147483647,0,0,1,1,2,2,3,3,4,4,5,5,6,6,7,7,8,8,9,9,10,10,11,11,15,15,16,16,22,22,25,25,27,27,28,28,29,29,30,30],"right_children":[2,4,6,8,10,12,14,16,18,20,22,24,-1,-1,-1,26,28,-1,-1,-1,-1,-1,30,-1,-1,32,-1,34,36,38,40,-1,-1,-1,-1,-1,-1,-1,-1,-1,-1],"split_conditions":[1.5567805E0,2.5537354E-1,2.8626816E0,6.382429E-1,2.766227E-1,8.388896E-1,4.090655E0,9.378347E-2,8.934285E-1,5.187439E-1,-4.35132E-1,1.5288602E0,1.6322092E0,8.32608E0,1.24988365E1,4.283811E-1,7.5344525E-2,2.8942833E0,5.606077E-1,-2.1099225E-1,9.533711E-2,-1.148888E0,2.5969678E-1,2.6018367E0,4.9635806E0,3.8473883E-1,5.9033906E-1,6.421735E-1,7.1845824E-1,3.3219746E-1,-3.6074525E-1,3.3479118E-1,1.1843361E0,1.3088639E0,4.2871985E-1,2.0173995E0,5.275322E-1,-9.130418E-1,-1.0293571E0,-8.8122433E-1,-5.0221235E-1],"split_indices":[20,22,20,9,22,2,8,11,2,0,20,9,0,0,0,17,2,0,0,0,0,0,4,0,0,5,0,5,16,22,20,0,0,0,0,0,0,0,0,0,0],"split_type":[0,0,0,0,0,0,0,0,0,0,0,0,0,0,0,0,0,0,0,0,0,0,0,0,0,0,0,0,0,0,0,0,0,0,0,0,0,0,0,0,0],"sum_hessian":[8.54E2,7.83E2,7.1E1,6.9E1,7.14E2,2.6E1,4.5E1,4E1,2.9E1,3E0,7.11E2,2.4E1,2E0,2.9E1,1.6E1,1.5E1,2.5E1,2.7E1,2E0,2E0,1E0,4.4E1,6.67E2,4E0,2E1,1.1E1,4E0,8E0,1.7E1,5.83E2,8.4E1,1E0,1E1,6E0,2E0,1.6E1,1E0,3.08E2,2.75E2,6.5E1,1.9E1],"tree_param":{"num_deleted":"0","num_feature":"23","num_nodes":"41","size_leaf_vector":"1"}},{"base_weights":[1.1755094E-1,-1.2425253E1,1.5919029E2,4.1722755E1,-1.8174868E1,1.3378981E2,1.2329647E1,2.9183817E1,5.9387505E1,-1.8275291E1,4.445257E0,1.1043958E2,1.5741444E2,2.1053537E1,3.4426487E1,5.864555E-1,3.0292575E0,-1.6434633E1,-1.8932419E1,-6.675911E-2,6.817131E0,1.1279661E2,1.1110734E0,8.1469145E0,3.313802E0,2.2363537E1,2.8695118E-1,1.792333E0,8.6494124E-1,-8.688516E0,-1.6890118E1,-2.0344894E1,-1.7945898E1,9.295368E-2,4.1833115E-1,1.2824357E0,5.753718E0,1.1487367E0,2.8405038E-1,-1.5014768E-1,-5.046944E-1,-3.2785842E-1,-8.5411215E-1,-9.435528E-1,-1.1256336E0,-7.545703E-1,-9.595893E-1],"categories":[],"categories_nodes":[],"categories_segments":[],"categories_sizes":[],"default_left":[0,0,0,0,0,0,0,0,0,0,0,0,0,0,0,0,0,0,0,0,0,0,0,0,0,0,0,0,0,0,0,0,0,0,0,0,0,0,0,0,0,0,0,0,0,0,0],"id":29,"left_children":[1,3,5,7,9,11,-1,13,15,17,19,21,23,25,27,-1,-1,29,31,-1,33,35,-1,-1,-1,37,-1,-1,-1,39,41,43,45,-1,-1,-1,-1,-1,-1,-1,-1,-1,-1,-1,-1,-1,-1],"loss_changes":[1.7198609E6,2.4951111E5,1.0687275E5,1.5322141E4,1.723625E3,1.07489375E4,0E0,1.278543E3,1.0587891E3,5.5971875E2,6.3944016E1,3.5235E3,7.80125E2,2.9295898E2,3.6652344E1,0E0,0E0,5.483203E2,3.650625E2,0E0,7.4932404E0,2.6065E3,0E0,0E0,0E0,6.3208984E1,0E0,0E0,0E0,7.356287E1,2.552461E2,2.3971875E2,8.377422E2,0E0,0E0,0E0,0E0,0E0,0E0,0E0,0E0,0E0,0E0,0E0,0E0,0E0,0E0],"parents":[2147483647,0,0,1,1,2,2,3,3,4,4,5,5,7,7,8,8,9,9,10,10,11,11,12,12,13,13,14,14,17,17,18,18,20,20,21,21,25,25,29,29,30,30,31,31,32,32],"right_children":[2,4,6,8,10,12,-1,14,16,18,20,22,24,26,28,-1,-1,30,32,-1,34,36,-1,-1,-1,38,-1,-1,-1,40,42,44,46,-1,-1,-1,-1,-1,-1,-1,-1,-1,-1,-1,-1,-1,-1],"split_conditions":[1.8212668E0,2.5537354E-1,4.090655E0,9.5950365E-1,1.0026704E0,3.203942E0,1.2329647E1,5.427602E-1,-2.1487434E-1,3.1963184E-1,4.5829162E-1,8.934285E-1,8.934285E-1,5.6862074E-1,7.312946E-1,5.864555E-1,3.0292575E0,-5.480973E-1,-2.046617E-1,-6.675911E-2,5.4103845E-1,1.3251851E0,1.1110734E0,8.1469145E0,3.313802E0,2.0633902E-1,2.8695118E-1,1.792333E0,8.6494124E-1,-4.1195422E-1,-3.9628804E-1,3.3710113E-1,3.5479516E-1,9.295368E-2,4.1833115E-1,1.2824357E0,5.753718E0,1.1487367E0,2.8405038E-1,-1.5014768E-1,-5.046944E-1,-3.2785842E-1,-8.5411215E-1,-9.435528E-1,-1.1256336E0,-7.545703E-1,-9.595893E-1],"split_indices":[20,22,8,8,4,6,0,8,17,22,5,2,2,5,6,0,0,16,4,0,5,10,0,0,0,10,0,0,0,14,7,22,22,0,0,0,0,0,0,0,0,0,0,0,0,0,0],"split_type":[0,0,0,0,0,0,0,0,0,0,0,0,0,0,0,0,0,0,0,0,0,0,0,0,0,0,0,0,0,0,0,0,0,0,0,0,0,0,0,0,0,0,0,0,0,0,0],"sum_hessian":[8.6E2,7.98E2,6.2E1,7.6E1,7.22E2,5E1,1.2E1,4.6E1,3E1,7.19E2,3E0,2.8E1,2.2E1,2E1,2.6E1,1E0,2.9E1,1.96E2,5.23E2,1E0,2E0,2.7E1,1E0,2E1,2E0,1.8E1,2E0,2.3E1,3E0,1.2E1,1.84E2,2.07E2,3.16E2,1E0,1E0,1E0,2.6E1,1.7E1,1E0,3E0,9E0,4E0,1.8E2,1.29E2,7.8E1,1E2,2.16E2],"tree_param":{"num_deleted":"0","num_feature":"23","num_nodes":"47","size_leaf_vector":"1"}},{"base_weights":[1.268985E0,-1.3066628E1,1.4644675E2,-1.7176704E1,3.4634987E1,1.04285904E2,1.9273756E2,-1.7247358E1,-3.5107307E0,2.7290848E1,5.020611E1,7.7548195E1,1.2043513E2,1.5660558E2,1.1916514E1,-1.7883085E1,-1.5729255E1,-5.294711E0,9.062977E-2,9.258062E-1,3.1061005E1,5.252475E1,2.1176414E-1,4.2911487E0,2.2657835E0,1.26971756E2,1.508797E0,1.62368E2,3.2033417E0,-1.8892405E1,-1.68902E1,-1.588886E1,1.2181574E0,-1.1260694E-1,-3.6056072E-1,3.5268993E1,2.1809942E1,7.6708984E-1,2.6904762E0,3.2852685E0,6.8205886E0,8.293786E0,2.305339E0,-9.467301E-1,-2.191339E-1,-9.40488E-1,-7.167043E-1,-4.0750867E-1,-8.1092787E-1,-9.18191E-2,1.8318091E-1,7.342962E-1,1.8413327E0,1.1770363E-1,1.1682326E0],"categories":[],"categories_nodes":[],"categories_segments":[],"categories_sizes":[],"default_left":[0,0,0,0,0,0,0,0,0,0,0,0,0,0,0,0,0,0,0,0,0,0,0,0,0,0,0,0,0,0,0,0,0,0,0,0,0,0,0,0,0,0,0,0,0,0,0,0,0,0,0,0,0,0,0],"id":30,"left_children":[1,3,5,7,9,11,13,15,17,19,21,23,25,27,-1,29,31,33,-1,-1,35,37,-1,-1,-1,39,-1,41,-1,43,45,47,49,-1,-1,51,53,-1,-1,-1,-1,-1,-1,-1,-1,-1,-1,-1,-1,-1,-1,-1,-1,-1,-1],"loss_changes":[1.8063246E6,1.5548012E5,1.3212962E5,6.423906E2,5.834297E3,9.227594E3,2.1981E4,4.1745312E2,5.708072E1,9.135664E2,1.80275E3,1.1784922E3,1.0918219E4,1.8623125E3,0E0,1.8496875E2,6.1983594E2,7.08374E0,0E0,0E0,3.986328E2,3.435547E1,0E0,0E0,0E0,4.3392188E3,0E0,9.160625E2,0E0,6.4578125E1,1.0208125E3,4.2913672E2,2.9137068E1,0E0,0E0,6.8333984E1,3.0797705E2,0E0,0E0,0E0,0E0,0E0,0E0,0E0,0E0,0E0,0E0,0E0,0E0,0E0,0E0,0E0,0E0,0E0,0E0],"parents":[2147483647,0,0,1,1,2,2,3,3,4,4,5,5,6,6,7,7,8,8,9,9,10,10,11,11,12,12,13,13,15,15,16,16,17,17,20,20,21,21,25,25,27,27,29,29,30,30,31,31,32,32,35,35,36,36],"right_children":[2,4,6,8,10,12,14,16,18,20,22,24,26,28,-1,30,32,34,-1,-1,36,38,-1,-1,-1,40,-1,42,-1,44,46,48,50,-1,-1,52,54,-1,-1,-1,-1,-1,-1,-1,-1,-1,-1,-1,-1,-1,-1,-1,-1,-1,-1],"split_conditions":[1.4261059E0,-1.853375E-2,3.3051481E0,-3.0301028E-1,5.011543E-1,1.812359E0,4.090655E0,-3.45502E-1,4.5829162E-1,4.7063154E-1,8.934285E-1,2.3219138E-1,8.934285E-1,8.934285E-1,1.1916514E1,-1.1179E-1,3.5256848E-1,1.7174256E0,9.062977E-2,9.258062E-1,3.6223948E-1,-8.827227E-2,2.1176414E-1,4.2911487E0,2.2657835E0,1.8442239E-1,1.508797E0,4.089959E0,3.2033417E0,-2.865962E-1,-3.8273734E-1,-5.537516E-1,-2.5736243E-1,-1.1260694E-1,-3.6056072E-1,5.1345617E-1,5.8408576E-1,7.6708984E-1,2.6904762E0,3.2852685E0,6.8205886E0,8.293786E0,2.305339E0,-9.467301E-1,-2.191339E-1,-9.40488E-1,-7.167043E-1,-4.0750867E-1,-8.1092787E-1,-9.18191E-2,1.8318091E-1,7.342962E-1,1.8413327E0,1.1770363E-1,1.1682326E0],"split_indices":[10,18,6,18,11,6,8,18,5,8,2,16,2,2,0,4,4,1,0,0,16,2,0,0,0,2,0,5,0,17,18,16,1,0,0,5,6,0,0,0,0,0,0,0,0,0,0,0,0,0,0,0,0,0,0],"split_type":[0,0,0,0,0,0,0,0,0,0,0,0,0,0,0,0,0,0,0,0,0,0,0,0,0,0,0,0,0,0,0,0,0,0,0,0,0,0,0,0,0,0,0,0,0,0,0,0,0,0,0,0,0,0,0],"sum_hessian":[8.66E2,7.89E2,7.7E1,7.27E2,6.2E1,4.2E1,3.5E1,7.23E2,4E0,4.4E1,1.8E1,1.8E1,2.4E1,2.2E1,1.3E1,5.02E2,2.21E2,3E0,1E0,1.5E1,2.9E1,1.7E1,1E0,1.3E1,5E0,2.2E1,2E0,2E1,2E0,2.4E2,2.62E2,2.19E2,2E0,2E0,1E0,1.8E1,1.1E1,1E0,1.6E1,4E0,1.8E1,1.9E1,1E0,2.39E2,1E0,1.46E2,1.16E2,1E1,2.09E2,1E0,1E0,2E0,1.6E1,1E0,1E1],"tree_param":{"num_deleted":"0","num_feature":"23","num_nodes":"55","size_leaf_vector":"1"}},{"base_weights":[9.5286345E-1,-1.3017584E1,1.3094899E2,-1.6450829E1,3.148158E1,8.638588E1,1.7666585E2,-1.2842432E1,-1.6847483E1,2.5404093E1,4.6804943E1,3.287833E0,9.5500046E1,7.250564E0,1.0853147E1,-7.2047973E0,-1.4565023E1,-1.7814571E1,-1.5963935E1,8.92014E-1,3.0136425E1,2.4189568E0,6.1915743E-1,1.0455765E0,9.741708E1,-7.7700267E0,8.836403E-2,-9.320811E0,-1.5730453E1,-1.6559845E1,-1.9993362E1,-8.83451E-1,-1.45626745E1,1.7698869E0,1.8704683E1,3.4255204E0,5.4835105E0,-1.9042587E-1,-4.6527264E-1,-1.4741535E-1,-5.10571E-1,-1.4574528E-1,-8.1233644E-1,-8.4819406E-1,-4.408163E-1,-4.7483006E-1,-1.010242E0,-7.659537E-1,-4.0378195E-1,1.2452763E0,5.209934E-1],"categories":[],"categories_nodes":[],"categories_segments":[],"categories_sizes":[],"default_left":[0,0,0,0,0,0,0,0,0,0,0,0,0,0,0,0,0,0,0,0,0,0,0,0,0,0,0,0,0,0,0,0,0,0,0,0,0,0,0,0,0,0,0,0,0,0,0,0,0,0,0],"id":31,"left_children":[1,3,5,7,9,11,13,15,17,19,21,-1,23,-1,-1,25,27,29,31,-1,33,-1,-1,-1,35,37,-1,39,41,43,45,-1,47,-1,49,-1,-1,-1,-1,-1,-1,-1,-1,-1,-1,-1,-1,-1,-1,-1,-1],"loss_changes":[1.5907956E6,1.21364125E5,1.5790788E5,8.35625E2,4.1192344E3,2.1810312E3,2.095225E4,6.4283496E2,2.7870312E2,1.0015176E3,2.1371094E2,0E0,2.1095312E3,0E0,0E0,1.1515747E2,2.078623E2,5.0545312E2,5.885E2,0E0,8.415488E2,0E0,0E0,0E0,2.404E3,8.012952E1,0E0,4.367395E1,2.5699512E2,4.7616797E2,4.564453E1,0E0,8.5764453E2,0E0,2.5421631E2,0E0,0E0,0E0,0E0,0E0,0E0,0E0,0E0,0E0,0E0,0E0,0E0,0E0,0E0,0E0,0E0],"parents":[2147483647,0,0,1,1,2,2,3,3,4,4,5,5,6,6,7,7,8,8,9,9,10,10,12,12,15,15,16,16,17,17,18,18,20,20,24,24,25,25,27,27,28,28,29,29,30,30,32,32,34,34],"right_children":[2,4,6,8,10,12,14,16,18,20,22,-1,24,-1,-1,26,28,30,32,-1,34,-1,-1,-1,36,38,-1,40,42,44,46,-1,48,-1,50,-1,-1,-1,-1,-1,-1,-1,-1,-1,-1,-1,-1,-1,-1,-1,-1],"split_conditions":[1.2857602E0,-1.853375E-2,3.182723E0,3.0394015E-1,9.521077E-1,1.6142368E0,4.090655E0,-2.7912518E-1,-2.975334E-1,1.0395144E-1,1.0082864E0,3.287833E0,-6.844222E-2,7.250564E0,1.0853147E1,-3.904051E-1,2.9037338E-1,3.3166623E-1,-3.8273734E-1,8.92014E-1,2.2653711E-1,2.4189568E0,6.1915743E-1,1.0455765E0,2.9350024E-1,-3.9352837E-1,8.836403E-2,-1.2262504E0,-4.2116714E-1,-3.6676875E-1,-3.9107963E-1,-8.83451E-1,3.5256848E-1,1.7698869E0,6.1459124E-1,3.4255204E0,5.4835105E0,-1.9042587E-1,-4.6527264E-1,-1.4741535E-1,-5.10571E-1,-1.4574528E-1,-8.1233644E-1,-8.4819406E-1,-4.408163E-1,-4.7483006E-1,-1.010242E0,-7.659537E-1,-4.0378195E-1,1.2452763E0,5.209934E-1],"split_indices":[5,18,11,22,6,8,8,21,4,11,8,0,21,0,0,4,22,22,18,0,16,0,0,0,2,14,0,4,14,9,8,0,4,0,5,0,0,0,0,0,0,0,0,0,0,0,0,0,0,0,0],"split_type":[0,0,0,0,0,0,0,0,0,0,0,0,0,0,0,0,0,0,0,0,0,0,0,0,0,0,0,0,0,0,0,0,0,0,0,0,0,0,0,0,0,0,0,0,0,0,0,0,0,0,0],"sum_hessian":[8.74E2,7.9E2,8.4E1,7.34E2,5.6E1,4.4E1,4E1,7.6E1,6.58E2,4.2E1,1.4E1,1.6E1,2.8E1,2.5E1,1.5E1,1.9E1,5.7E1,3.05E2,3.53E2,1.8E1,2.4E1,1.3E1,1E0,1E0,2.7E1,1.8E1,1E0,1.2E1,4.5E1,1.99E2,1.06E2,1.54E2,1.99E2,1.5E1,9E0,1E1,1.7E1,6E0,1.2E1,2E0,1E1,2E0,4.3E1,1.88E2,1.1E1,3E0,1.03E2,1.77E2,2.2E1,4E0,5E0],"tree_param":{"num_deleted":"0","num_feature":"23","num_nodes":"51","size_leaf_vector":"1"}},{"base_weights":[1.6473455E0,-1.081259E1,1.4608649E2,-1.562345E1,3.880347E1,1.23168015E2,1.0447245E1,-1.5700434E1,2.2741985E0,2.6979685E1,2.659483E0,8.9065475E1,6.775394E0,-9.6479553E-1,-1.5423547E1,-5.218029E-2,1.864001E-1,1.791809E1,1.48525E0,2.5309052E0,4.8500867E0,-1.5785971E1,-1.2904269E1,1.0429327E0,3.41115E-1,-7.327915E-1,-8.2188E-1,-7.1353716E-1,-3.9849228E-1],"categories":[],"categories_nodes":[],"categories_segments":[],"categories_sizes":[],"default_left":[0,0,0,0,0,0,0,0,0,0,0,0,0,0,0,0,0,0,0,0,0,0,0,0,0,0,0,0,0],"id":32,"left_children":[1,3,5,7,9,11,-1,13,15,17,-1,19,-1,-1,21,-1,-1,23,-1,-1,-1,25,27,-1,-1,-1,-1,-1,-1],"loss_changes":[1.5637212E6,1.91563E5,7.3667375E4,1.0415156E3,1.0642E4,1.0234375E4,0E0,4.2614062E2,2.3184307E1,4.8026758E2,0E0,2.7714062E2,0E0,0E0,4.1717188E2,0E0,0E0,2.4923071E2,0E0,0E0,0E0,1.9359375E2,4.998545E2,0E0,0E0,0E0,0E0,0E0,0E0],"parents":[2147483647,0,0,1,1,2,2,3,3,4,4,5,5,7,7,8,8,9,9,11,11,14,14,17,17,21,21,22,22],"right_children":[2,4,6,8,10,12,-1,14,16,18,-1,20,-1,-1,22,-1,-1,24,-1,-1,-1,26,28,-1,-1,-1,-1,-1,-1],"split_conditions":[1.7964712E0,-2.4550556E-1,4.3752127E0,1.0026704E0,6.8855226E-1,2.324693E0,1.0447245E1,-4.35132E-1,4.5829162E-1,4.348559E-1,2.659483E0,7.5344525E-2,6.775394E0,-9.6479553E-1,2.5969678E-1,-5.218029E-2,1.864001E-1,4.339919E-1,1.48525E0,2.5309052E0,4.8500867E0,-3.7958086E-1,-3.6074525E-1,1.0429327E0,3.41115E-1,-7.327915E-1,-8.2188E-1,-7.1353716E-1,-3.9849228E-1],"split_indices":[20,17,20,4,7,5,0,20,5,9,0,2,0,0,4,0,0,9,0,0,0,8,20,0,0,0,0,0,0],"split_type":[0,0,0,0,0,0,0,0,0,0,0,0,0,0,0,0,0,0,0,0,0,0,0,0,0,0,0,0,0],"sum_hessian":[8.67E2,7.99E2,6.8E1,7.29E2,7E1,5.2E1,1.6E1,7.26E2,3E0,4E1,3E1,1.6E1,3.6E1,4.7E1,6.79E2,1E0,2E0,1.1E1,2.9E1,4E0,1.2E1,5.89E2,9E1,8E0,3E0,2.24E2,3.65E2,6.9E1,2.1E1],"tree_param":{"num_deleted":"0","num_feature":"23","num_nodes":"29","size_leaf_vector":"1"}},{"base_weights":[-3.434154E-1,-1.1382229E1,1.0854986E2,-1.4755424E1,2.6935928E1,7.692877E1,1.52213E2,-1.5135862E1,-1.2381108E1,1.9909496E1,3.497186E1,5.5290554E1,8.770933E1,6.273781E0,1.795369E2,-1.4168882E1,-1.576154E1,-1.330274E1,-5.841585E0,1.4687121E0,1.7130054E1,3.738819E1,5.261369E-1,3.2379544E0,1.8787254E0,8.5005265E-1,8.9499565E1,8.151402E1,9.943003E0,-1.4267004E1,-4.3959208E0,-1.6908504E1,-1.4504581E1,-1.0449562E1,-1.525892E1,3.336919E0,-9.482579E0,1.2768693E1,2.2186657E1,1.9867299E0,7.274666E-1,1.6852515E0,4.614057E0,1.0837052E0,4.711798E0,-7.364642E-1,-6.01619E-1,-5.898385E-2,-2.5373882E-1,-1.2577163E-1,-8.485841E-1,-8.288142E-1,-6.1150914E-1,3.5364725E-2,-5.5199224E-1,-8.027436E-1,-2.2033966E-1,-5.77508E-2,2.3743284E-1,-5.353359E-1,-1.324653E-1,8.563186E-1,3.5670725E-1,2.9146728E-1,1.2315387E0],"categories":[],"categories_nodes":[],"categories_segments":[],"categories_sizes":[],"default_left":[0,0,0,0,0,0,0,0,0,0,0,0,0,0,0,0,0,0,0,0,0,0,0,0,0,0,0,0,0,0,0,0,0,0,0,0,0,0,0,0,0,0,0,0,0,0,0,0,0,0,0,0,0,0,0,0,0,0,0,0,0,0,0,0,0],"id":33,"left_children":[1,3,5,7,9,11,13,15,17,19,21,23,25,-1,27,29,31,33,35,-1,37,39,-1,-1,-1,-1,41,43,-1,45,47,49,51,53,55,57,59,61,63,-1,-1,-1,-1,-1,-1,-1,-1,-1,-1,-1,-1,-1,-1,-1,-1,-1,-1,-1,-1,-1,-1,-1,-1,-1,-1],"loss_changes":[1.0578398E6,1.0367187E5,1.0012519E5,4.7651562E2,2.9738828E3,6.5808125E3,1.5813125E3,1.5721875E2,5.671836E2,4.7016602E2,1.3198125E3,7.538594E2,2.4025625E3,0E0,1.0307656E4,1.8373438E2,2.924922E2,3.5961523E2,5.329258E2,0E0,4.0036914E2,8.152031E2,0E0,0E0,0E0,0E0,1.5455625E3,1.0026387E3,0E0,8.516016E1,2.7468567E0,1.2917578E2,6.6896875E2,2.7782227E2,3.8705176E2,3.7191948E1,6.3648254E1,3.443357E2,3.7614746E2,0E0,0E0,0E0,0E0,0E0,0E0,0E0,0E0,0E0,0E0,0E0,0E0,0E0,0E0,0E0,0E0,0E0,0E0,0E0,0E0,0E0,0E0,0E0,0E0,0E0,0E0],"parents":[2147483647,0,0,1,1,2,2,3,3,4,4,5,5,6,6,7,7,8,8,9,9,10,10,11,11,12,12,14,14,15,15,16,16,17,17,18,18,20,20,21,21,26,26,27,27,29,29,30,30,31,31,32,32,33,33,34,34,35,35,36,36,37,37,38,38],"right_children":[2,4,6,8,10,12,14,16,18,20,22,24,26,-1,28,30,32,34,36,-1,38,40,-1,-1,-1,-1,42,44,-1,46,48,50,52,54,56,58,60,62,64,-1,-1,-1,-1,-1,-1,-1,-1,-1,-1,-1,-1,-1,-1,-1,-1,-1,-1,-1,-1,-1,-1,-1,-1,-1,-1],"split_conditions":[1.1269902E0,-1.853375E-2,3.2891312E0,-3.1941926E-1,6.3475037E-1,1.8212668E0,3.691571E0,-3.7958086E-1,-3.6400393E-1,-7.8557646E-1,7.6934665E-1,3.7920228E-1,-6.844222E-2,6.273781E0,3.627637E0,-1.0689706E-1,-2.046617E-1,-3.8431543E-1,5.1254872E-2,1.4687121E0,1.700379E-1,1.0082864E0,5.261369E-1,3.2379544E0,1.8787254E0,8.5005265E-1,1.4261059E0,1.3741572E0,9.943003E0,-3.4095982E-1,-3.980728E-1,2.939081E-1,-3.810959E-1,-4.9402678E-1,7.395339E-2,5.187439E-1,-4.8327678E-1,3.354047E-2,-3.262902E-2,1.9867299E0,7.274666E-1,1.6852515E0,4.614057E0,1.0837052E0,4.711798E0,-7.364642E-1,-6.01619E-1,-5.898385E-2,-2.5373882E-1,-1.2577163E-1,-8.485841E-1,-8.288142E-1,-6.1150914E-1,3.5364725E-2,-5.5199224E-1,-8.027436E-1,-2.2033966E-1,-5.77508E-2,2.3743284E-1,-5.353359E-1,-1.324653E-1,8.563186E-1,3.5670725E-1,2.9146728E-1,1.2315387E0],"split_indices":[20,18,11,20,8,20,6,8,9,16,16,16,17,0,11,10,4,15,16,0,11,8,0,0,0,0,10,4,0,18,6,22,18,10,4,0,4,10,10,0,0,0,0,0,0,0,0,0,0,0,0,0,0,0,0,0,0,0,0,0,0,0,0,0,0],"split_type":[0,0,0,0,0,0,0,0,0,0,0,0,0,0,0,0,0,0,0,0,0,0,0,0,0,0,0,0,0,0,0,0,0,0,0,0,0,0,0,0,0,0,0,0,0,0,0,0,0,0,0,0,0,0,0,0,0,0,0,0,0,0,0,0,0],"sum_hessian":[8.78E2,7.98E2,8E1,7.34E2,6.4E1,4.8E1,3.2E1,6.28E2,1.06E2,3.6E1,2.8E1,1.8E1,3E1,1.9E1,1.3E1,2.56E2,3.72E2,9.2E1,1.4E1,6E0,3E1,2.5E1,3E0,1E1,8E0,1E0,2.9E1,3E0,1E1,2.53E2,3E0,1.88E2,1.84E2,4E1,5.2E1,4E0,1E1,1.8E1,1.2E1,2.2E1,3E0,2E0,2.7E1,1E0,2E0,2.05E2,4.8E1,1E0,2E0,1E0,1.87E2,9.3E1,9.1E1,2E0,3.8E1,4.8E1,4E0,1E0,3E0,8E0,2E0,9E0,9E0,2E0,1E1],"tree_param":{"num_deleted":"0","num_feature":"23","num_nodes":"65","size_leaf_vector":"1"}},{"base_weights":[-3.8759792E-3,-1.0159368E1,1.1663925E2,-1.39343815E1,2.841347E1,8.5043205E1,1.536458E2,-1.3974037E1,3.7326303E-1,1.8617239E1,3.4967506E1,5.050428E1,9.344146E1,5.4200063E0,1.7002945E2,-7.9774815E-1,-1.3597456E1,-4.7564317E-2,7.555904E-2,1.3041283E1,2.302962E1,3.6223064E1,3.2854614E-1,6.852272E-1,2.6535208E0,9.743519E1,1.1844137E0,8.733309E0,1.9323708E0,-1.4374086E1,-1.2678996E1,1.4649784E1,4.5533333E0,1.3279365E0,9.953832E0,2.1822681E1,3.91412E1,4.956846E0,1.244667E0,-1.13060415E-1,-7.220628E-1,-2.954125E-1,-6.3999796E-1,9.4052947E-1,5.355236E-1,2.610957E-1,6.3689806E-2,-1.3652687E-1,6.903779E-1,1.1601614E0,2.6945764E-1,8.632927E-1,2.0824807E0],"categories":[],"categories_nodes":[],"categories_segments":[],"categories_sizes":[],"default_left":[0,0,0,0,0,0,0,0,0,0,0,0,0,0,0,0,0,0,0,0,0,0,0,0,0,0,0,0,0,0,0,0,0,0,0,0,0,0,0,0,0,0,0,0,0,0,0,0,0,0,0,0,0],"id":34,"left_children":[1,3,5,7,9,11,13,15,17,19,21,23,25,-1,27,-1,29,-1,-1,31,33,35,-1,-1,-1,37,-1,-1,-1,39,41,43,45,-1,47,49,51,-1,-1,-1,-1,-1,-1,-1,-1,-1,-1,-1,-1,-1,-1,-1,-1],"loss_changes":[1.0353132E6,1.17468766E5,6.878169E4,4.2110938E2,3.971754E3,6.8834688E3,4.54875E3,3.28375E2,5.9592505E0,4.6236523E2,1.2594297E3,2.1702539E2,6.32775E3,0E0,6.0424375E3,0E0,2.6071094E2,0E0,0E0,1.5174072E2,4.7397266E2,8.2672266E2,0E0,0E0,0E0,1.1120938E3,0E0,0E0,0E0,2.3502344E2,1.6434375E2,1.1608887E1,2.1188812E0,0E0,2.8211255E2,7.913965E1,1.0368008E3,0E0,0E0,0E0,0E0,0E0,0E0,0E0,0E0,0E0,0E0,0E0,0E0,0E0,0E0,0E0,0E0],"parents":[2147483647,0,0,1,1,2,2,3,3,4,4,5,5,6,6,7,7,8,8,9,9,10,10,11,11,12,12,14,14,16,16,19,19,20,20,21,21,25,25,29,29,30,30,31,31,32,32,34,34,35,35,36,36],"right_children":[2,4,6,8,10,12,14,16,18,20,22,24,26,-1,28,-1,30,-1,-1,32,34,36,-1,-1,-1,38,-1,-1,-1,40,42,44,46,-1,48,50,52,-1,-1,-1,-1,-1,-1,-1,-1,-1,-1,-1,-1,-1,-1,-1,-1],"split_conditions":[1.5567805E0,-1.853375E-2,3.3143487E0,2.3763332E-1,6.55874E-1,1.5506178E0,1.2988345E-1,-4.1033643E-1,4.5829162E-1,1.0395144E-1,8.934285E-1,-3.3733338E-2,8.934285E-1,5.4200063E0,8.934285E-1,-7.9774815E-1,-3.447553E-1,-4.7564317E-2,7.555904E-2,5.219821E-1,6.001867E-1,1.0395144E-1,3.2854614E-1,6.852272E-1,2.6535208E0,3.584284E0,1.1844137E0,8.733309E0,1.9323708E0,-5.306808E-1,2.9002604E-1,4.184759E-1,4.831831E-1,1.3279365E0,7.300316E-1,6.7527276E-1,7.5344525E-2,4.956846E0,1.244667E0,-1.13060415E-1,-7.220628E-1,-2.954125E-1,-6.3999796E-1,9.4052947E-1,5.355236E-1,2.610957E-1,6.3689806E-2,-1.3652687E-1,6.903779E-1,1.1601614E0,2.6945764E-1,8.632927E-1,2.0824807E0],"split_indices":[20,18,6,5,20,10,2,20,5,11,2,2,2,0,2,0,10,0,0,6,6,11,0,0,0,5,0,0,0,11,22,6,1,0,1,2,2,0,0,0,0,0,0,0,0,0,0,0,0,0,0,0,0],"split_type":[0,0,0,0,0,0,0,0,0,0,0,0,0,0,0,0,0,0,0,0,0,0,0,0,0,0,0,0,0,0,0,0,0,0,0,0,0,0,0,0,0,0,0,0,0,0,0,0,0,0,0,0,0],"sum_hessian":[8.72E2,8.03E2,6.9E1,7.32E2,7.1E1,3.9E1,3E1,7.3E2,2E0,3E1,4.1E1,9E0,3E1,1E1,2E1,1.1E2,6.2E2,1E0,1E0,1.5E1,1.5E1,3.9E1,2E0,1E0,8E0,2.8E1,2E0,1.9E1,1E0,3.28E2,2.92E2,1.2E1,3E0,1.1E1,4E0,8E0,3.1E1,2.7E1,1E0,2E0,3.26E2,6E0,2.86E2,4E0,8E0,2E0,1E0,1E0,3E0,7E0,1E0,4E0,2.7E1],"tree_param":{"num_deleted":"0","num_feature":"23","num_nodes":"53","size_leaf_vector":"1"}},{"base_weights":[2.0038765E-3,-9.852736E0,1.1000218E2,-1.3252163E1,2.7050394E1,7.9600136E1,1.4741736E2,-1.3288714E1,3.6392975E-1,2.2463764E1,3.7393784E1,1.8024577E0,8.314257E1,1.4974171E2,1.8840615E0,-8.1666374E-1,-1.3058909E1,-4.6375275E-2,7.367001E-2,1.7661829E1,2.577743E1,1.9543145E0,1.3090324E-1,5.8084732E1,9.21281E1,5.1212506E0,1.6444287E2,-2.185835E0,-1.3086655E1,3.951767E-1,1.9218311E1,1.5417169E0,1.0028801E0,3.2453022E0,1.3255135E0,9.380448E1,1.2135499E0,9.221178E0,4.7640443E0,-1.4650346E-3,-1.6247259E-1,-5.5653685E-1,-6.6561115E-1,5.556946E-1,1.058943E0,2.8250499E0,4.9997873E0],"categories":[],"categories_nodes":[],"categories_segments":[],"categories_sizes":[],"default_left":[0,0,0,0,0,0,0,0,0,0,0,0,0,0,0,0,0,0,0,0,0,0,0,0,0,0,0,0,0,0,0,0,0,0,0,0,0,0,0,0,0,0,0,0,0,0,0],"id":35,"left_children":[1,3,5,7,9,11,13,15,17,19,21,-1,23,25,-1,-1,27,-1,-1,29,31,-1,-1,33,35,-1,37,39,41,-1,43,-1,-1,-1,-1,45,-1,-1,-1,-1,-1,-1,-1,-1,-1,-1,-1],"loss_changes":[9.756207E5,1.0397977E5,7.2440375E4,3.8157812E2,2.4808867E3,3.6366875E3,2.5196875E3,3.149375E2,5.6650143E0,3.5623438E2,1.074832E3,0E0,3.4299062E3,4.7208125E3,0E0,0E0,1.8467188E2,0E0,0E0,2.1263428E2,1.9142773E2,0E0,0E0,1.07925E3,7.9465625E2,0E0,1.28298125E4,6.785967E0,1.62875E2,0E0,8.240283E1,0E0,0E0,0E0,0E0,3.5498438E2,0E0,0E0,0E0,0E0,0E0,0E0,0E0,0E0,0E0,0E0,0E0],"parents":[2147483647,0,0,1,1,2,2,3,3,4,4,5,5,6,6,7,7,8,8,9,9,10,10,12,12,13,13,16,16,19,19,20,20,23,23,24,24,26,26,27,27,28,28,30,30,35,35],"right_children":[2,4,6,8,10,12,14,16,18,20,22,-1,24,26,-1,-1,28,-1,-1,30,32,-1,-1,34,36,-1,38,40,42,-1,44,-1,-1,-1,-1,46,-1,-1,-1,-1,-1,-1,-1,-1,-1,-1,-1],"split_conditions":[1.5288602E0,-1.853375E-2,3.3143487E0,2.3763332E-1,9.5950365E-1,7.668453E-1,8.934285E-1,-4.098071E-1,4.5829162E-1,1.0395144E-1,8.934285E-1,1.8024577E0,1.7640561E0,1.2988345E-1,1.8840615E0,-8.1666374E-1,-5.306808E-1,-4.6375275E-2,7.367001E-2,2.3896132E-1,1.7329277E-2,1.9543145E0,1.3090324E-1,-2.2580415E-1,3.584284E0,5.1212506E0,2.6013288E0,1.4933567E0,-4.2434156E-1,3.951767E-1,4.2151523E-1,1.5417169E0,1.0028801E0,3.2453022E0,1.3255135E0,7.5344525E-2,1.2135499E0,9.221178E0,4.7640443E0,-1.4650346E-3,-1.6247259E-1,-5.5653685E-1,-6.6561115E-1,5.556946E-1,1.058943E0,2.8250499E0,4.9997873E0],"split_indices":[9,18,6,5,8,18,2,18,5,11,2,0,6,2,0,0,11,0,0,2,16,0,0,16,5,0,16,2,5,0,5,0,0,0,0,2,0,0,0,0,0,0,0,0,0,0,0],"split_type":[0,0,0,0,0,0,0,0,0,0,0,0,0,0,0,0,0,0,0,0,0,0,0,0,0,0,0,0,0,0,0,0,0,0,0,0,0,0,0,0,0,0,0,0,0,0,0],"sum_hessian":[8.98E2,8.25E2,7.3E1,7.56E2,6.9E1,4.2E1,3.1E1,7.54E2,2E0,5E1,1.9E1,4E0,3.8E1,3E1,1E0,4.8E1,7.06E2,1E0,1E0,2.3E1,2.7E1,1.8E1,1E0,1.2E1,2.6E1,9E0,2.1E1,2E0,7.04E2,4E0,1.9E1,1.2E1,1.5E1,9E0,3E0,2.5E1,1E0,1.5E1,6E0,1E0,1E0,7.8E1,6.26E2,5E0,1.4E1,5E0,2E1],"tree_param":{"num_deleted":"0","num_feature":"23","num_nodes":"47","size_leaf_vector":"1"}},{"base_weights":[7.061579E-1,-9.25584E0,1.06778435E2,-1.2656791E1,2.8140266E1,7.4602486E1,1.4900305E2,-1.2718097E1,1.542429E0,1.2992966E1,3.3130287E1,5.6820194E1,9.5009705E1,1.0674206E2,8.345475E0,-1.0545689E1,-1.2954352E1,-4.521599E-2,1.3297258E-1,3.1018615E-1,1.4489626E1,2.5268372E1,3.7680977E1,5.8843082E1,1.0848511E0,4.982784E0,1.8506348E0,5.5672436E0,1.4027771E0,-5.447744E0,-1.1814344E1,-1.3770412E1,-1.1791916E1,1.8241667E1,8.131633E0,1.2948841E0,3.17054E-1,3.8597546E1,3.0042687E-1,1.9273303E0,3.329108E0,-3.8753297E-2,-3.1968352E-1,4.3464135E-2,-6.022028E-1,-6.513229E-1,-7.9990095E-1,-4.5770678E-1,-6.47803E-1,3.4074453E-1,1.0457389E0,4.6247062E-1,3.5623934E-2,5.2733004E-1,1.9622927E0],"categories":[],"categories_nodes":[],"categories_segments":[],"categories_sizes":[],"default_left":[0,0,0,0,0,0,0,0,0,0,0,0,0,0,0,0,0,0,0,0,0,0,0,0,0,0,0,0,0,0,0,0,0,0,0,0,0,0,0,0,0,0,0,0,0,0,0,0,0,0,0,0,0,0,0],"id":36,"left_children":[1,3,5,7,9,11,13,15,17,19,21,23,25,27,-1,29,31,-1,-1,-1,33,35,37,39,-1,-1,-1,-1,-1,41,43,45,47,49,51,-1,-1,53,-1,-1,-1,-1,-1,-1,-1,-1,-1,-1,-1,-1,-1,-1,-1,-1,-1],"loss_changes":[9.108E5,1.0057582E5,8.9421625E4,6.4897656E2,4.558172E3,1.0568547E4,5.6428125E3,2.3292969E2,1.3337291E1,9.301172E1,8.009414E2,5.7059375E2,1.4310625E3,1.2223281E3,0E0,4.271709E2,4.4947656E2,0E0,0E0,0E0,1.8564185E2,8.5916016E1,6.099492E2,1.2033125E3,0E0,0E0,0E0,0E0,0E0,7.018463E1,1.8528418E2,4.097578E2,7.1971484E2,1.0182837E2,5.1460785E1,0E0,0E0,9.529297E1,0E0,0E0,0E0,0E0,0E0,0E0,0E0,0E0,0E0,0E0,0E0,0E0,0E0,0E0,0E0,0E0,0E0],"parents":[2147483647,0,0,1,1,2,2,3,3,4,4,5,5,6,6,7,7,8,8,9,9,10,10,11,11,12,12,13,13,15,15,16,16,20,20,21,21,22,22,23,23,29,29,30,30,31,31,32,32,33,33,34,34,37,37],"right_children":[2,4,6,8,10,12,14,16,18,20,22,24,26,28,-1,30,32,-1,-1,-1,34,36,38,40,-1,-1,-1,-1,-1,42,44,46,48,50,52,-1,-1,54,-1,-1,-1,-1,-1,-1,-1,-1,-1,-1,-1,-1,-1,-1,-1,-1,-1],"split_conditions":[1.5567805E0,-2.4550556E-1,3.3143487E0,1.0026704E0,1.0395144E-1,2.8626816E0,3.5569582E0,3.0394015E-1,4.8057958E-1,4.831831E-1,6.475081E-1,2.674361E0,3.365345E0,3.946763E0,8.345475E0,-2.8211358E-1,-1.1179E-1,-4.521599E-2,1.3297258E-1,3.1018615E-1,1.6183129E-1,8.8783824E-1,2.7672327E0,1.4670289E0,1.0848511E0,4.982784E0,1.8506348E0,5.5672436E0,1.4027771E0,-3.9577267E-1,-3.98411E-1,3.4000245E-1,3.575126E-1,4.17209E-1,4.283811E-1,1.2948841E0,3.17054E-1,1.0955421E0,3.0042687E-1,1.9273303E0,3.329108E0,-3.8753297E-2,-3.1968352E-1,4.3464135E-2,-6.022028E-1,-6.513229E-1,-7.9990095E-1,-4.5770678E-1,-6.47803E-1,3.4074453E-1,1.0457389E0,4.6247062E-1,3.5623934E-2,5.2733004E-1,1.9622927E0],"split_indices":[20,17,6,4,11,20,20,22,6,1,7,4,14,11,0,17,4,0,0,0,10,10,4,4,0,0,0,0,0,6,7,22,22,14,17,0,0,4,0,0,0,0,0,0,0,0,0,0,0,0,0,0,0,0,0],"split_type":[0,0,0,0,0,0,0,0,0,0,0,0,0,0,0,0,0,0,0,0,0,0,0,0,0,0,0,0,0,0,0,0,0,0,0,0,0,0,0,0,0,0,0,0,0,0,0,0,0,0,0,0,0,0,0],"sum_hessian":[8.6E2,7.87E2,7.3E1,7.22E2,6.5E1,4.3E1,3E1,7.19E2,3E0,1.7E1,4.8E1,2.5E1,1.8E1,1.1E1,1.9E1,7.5E1,6.44E2,1E0,2E0,4E0,1.3E1,2E1,2.8E1,2.3E1,2E0,1.6E1,2E0,1E1,1E0,1.6E1,5.9E1,3.72E2,2.72E2,7E0,6E0,1.9E1,1E0,2.7E1,1E0,8E0,1.5E1,3E0,1.3E1,1E0,5.8E1,2.84E2,8.8E1,8.6E1,1.86E2,2E0,5E0,5E0,1E0,1E0,2.6E1],"tree_param":{"num_deleted":"0","num_feature":"23","num_nodes":"55","size_leaf_vector":"1"}},{"base_weights":[1.0141981E0,-8.176957E0,1.08229645E2,-1.2096709E1,2.7998198E1,9.2507805E1,1.688385E2,-7.098628E-1,-1.1811352E1,2.0051392E1,3.9656113E1,6.2881466E1,1.03526955E2,1.0611383E2,9.73886E0,-1.2288734E1,-9.234654E0,1.3824695E1,2.3220936E1,4.058743E1,2.9291612E-1,1.733497E0,6.846548E1,5.238936E0,1.3677078E0,6.7069435E0,1.6687918E0,-1.1410055E1,-1.3485208E1,-1.023557E1,-3.4513512E0,7.379071E-1,3.317364E-1,1.2340453E0,5.3464586E-1,5.1414645E-1,4.127783E1,3.5564446E0,8.460266E-1,-6.085815E-1,-4.6993276E-1,-6.8917674E-1,-3.2277343E-1,-7.2045916E-1,-4.731125E-1,-4.004208E-1,-4.426029E-2,2.096812E0,5.710549E-1],"categories":[],"categories_nodes":[],"categories_segments":[],"categories_sizes":[],"default_left":[0,0,0,0,0,0,0,0,0,0,0,0,0,0,0,0,0,0,0,0,0,0,0,0,0,0,0,0,0,0,0,0,0,0,0,0,0,0,0,0,0,0,0,0,0,0,0,0,0],"id":37,"left_children":[1,3,5,7,9,11,13,-1,15,17,19,21,23,25,-1,27,29,31,33,35,-1,-1,37,-1,-1,-1,-1,39,41,43,45,-1,-1,-1,-1,-1,47,-1,-1,-1,-1,-1,-1,-1,-1,-1,-1,-1,-1],"loss_changes":[8.611687E5,1.14485805E5,5.0130062E4,2.6807812E2,6.5236484E3,1.2098125E4,4.8240625E2,0E0,6.8114844E2,6.4603125E2,7.379961E2,4.6191406E2,9.4784375E2,7.753914E3,0E0,4.159453E2,5.7247656E2,2.9601562E1,3.0309375E2,2.0320703E2,0E0,0E0,7.1846094E2,0E0,0E0,0E0,0E0,3.742578E2,3.8078516E2,1.5090723E2,1.9171045E2,0E0,0E0,0E0,0E0,0E0,9.112891E1,0E0,0E0,0E0,0E0,0E0,0E0,0E0,0E0,0E0,0E0,0E0,0E0],"parents":[2147483647,0,0,1,1,2,2,3,3,4,4,5,5,6,6,8,8,9,9,10,10,11,11,12,12,13,13,15,15,16,16,17,17,18,18,19,19,22,22,27,27,28,28,29,29,30,30,36,36],"right_children":[2,4,6,8,10,12,14,-1,16,18,20,22,24,26,-1,28,30,32,34,36,-1,-1,38,-1,-1,-1,-1,40,42,44,46,-1,-1,-1,-1,-1,48,-1,-1,-1,-1,-1,-1,-1,-1,-1,-1,-1,-1],"split_conditions":[1.5506178E0,4.2884162E-1,4.3752127E0,-4.186016E-1,5.011543E-1,1.9039187E0,1.2988345E-1,-7.098628E-1,1.6682509E-1,5.3189605E-1,8.934285E-1,1.5567805E0,4.093166E0,2.0805592E-2,9.73886E0,3.3219746E-1,-3.6363214E-1,5.4618996E-1,7.174937E-1,-8.827227E-2,2.9291612E-1,1.733497E0,8.934285E-1,5.238936E0,1.3677078E0,6.7069435E0,1.6687918E0,-5.761485E-1,2.3624218E0,-3.099963E-1,-3.9352837E-1,7.379071E-1,3.317364E-1,1.2340453E0,5.3464586E-1,5.1414645E-1,1.8267865E0,3.5564446E0,8.460266E-1,-6.085815E-1,-4.6993276E-1,-6.8917674E-1,-3.2277343E-1,-7.2045916E-1,-4.731125E-1,-4.004208E-1,-4.426029E-2,2.096812E0,5.710549E-1],"split_indices":[10,7,20,20,11,20,2,0,4,20,2,20,14,2,0,22,18,14,6,2,0,0,2,0,0,0,0,4,12,13,14,0,0,0,0,0,14,0,0,0,0,0,0,0,0,0,0,0,0],"split_type":[0,0,0,0,0,0,0,0,0,0,0,0,0,0,0,0,0,0,0,0,0,0,0,0,0,0,0,0,0,0,0,0,0,0,0,0,0,0,0,0,0,0,0,0,0,0,0,0,0],"sum_hessian":[8.72E2,8.04E2,6.8E1,7.26E2,7.8E1,5.6E1,1.2E1,8.1E1,6.45E2,4.8E1,3E1,1.7E1,3.9E1,5E0,7E0,5.41E2,1.04E2,1.8E1,3E1,2.9E1,1E0,4E0,1.3E1,3.8E1,1E0,3E0,2E0,3.18E2,2.23E2,8.8E1,1.6E1,1.5E1,3E0,2.6E1,4E0,1E0,2.8E1,1.2E1,1E0,2.27E2,9.1E1,2.13E2,1E1,1.1E1,7.7E1,5E0,1.1E1,2.7E1,1E0],"tree_param":{"num_deleted":"0","num_feature":"23","num_nodes":"49","size_leaf_vector":"1"}},{"base_weights":[8.02896E-1,-8.304399E0,1.01351456E2,-1.15005245E1,2.4449066E1,8.282357E1,8.051128E0,-6.8839073E-1,-1.1225555E1,1.9336031E1,3.4958282E1,5.930384E1,9.9345116E1,-1.15335655E1,-7.7414947E0,1.4829155E1,2.1846308E1,3.6329597E1,7.081706E-1,6.187764E1,9.4727373E-1,1.0059708E0,1.0125177E2,-1.2427208E1,-1.0757691E1,-4.691046E-1,-9.124099E0,1.08494425E1,1.8121895E1,1.5271668E1,2.4370045E1,5.012924E-1,1.8593165E0,1.9579681E0,6.727488E1,5.2785306E0,2.285349E0,-5.470809E-1,-6.8402267E-1,-4.1893402E-1,-5.799294E-1,-1.2738553E-1,3.9284255E-2,-5.6435436E-1,-3.6961722E-1,1.4224091E-1,5.659258E-1,9.59812E-1,2.1131973E-1,8.9447516E-1,1.1638031E-1,1.2540737E0,2.7132186E-1,2.0333142E0,3.8595161E0],"categories":[],"categories_nodes":[],"categories_segments":[],"categories_sizes":[],"default_left":[0,0,0,0,0,0,0,0,0,0,0,0,0,0,0,0,0,0,0,0,0,0,0,0,0,0,0,0,0,0,0,0,0,0,0,0,0,0,0,0,0,0,0,0,0,0,0,0,0,0,0,0,0,0,0],"id":38,"left_children":[1,3,5,7,9,11,-1,-1,13,15,17,19,21,23,25,27,29,31,-1,33,-1,-1,35,37,39,41,43,45,47,49,51,-1,-1,-1,53,-1,-1,-1,-1,-1,-1,-1,-1,-1,-1,-1,-1,-1,-1,-1,-1,-1,-1,-1,-1],"loss_changes":[7.938598E5,8.3505125E4,6.626519E4,2.974375E2,3.139164E3,1.6257656E4,0E0,0E0,6.103906E2,2.4171289E2,1.1280664E2,1.5284375E3,2.7967188E3,2.802422E2,5.58791E2,7.8575195E1,1.25609375E2,7.788281E1,0E0,3.0833594E2,0E0,0E0,2.6111875E3,3.5486328E2,5.569844E2,2.8083832E1,9.261304E1,1.2858032E1,6.8154785E1,3.3109985E2,1.3343848E2,0E0,0E0,0E0,1.6100078E3,0E0,0E0,0E0,0E0,0E0,0E0,0E0,0E0,0E0,0E0,0E0,0E0,0E0,0E0,0E0,0E0,0E0,0E0,0E0,0E0],"parents":[2147483647,0,0,1,1,2,2,3,3,4,4,5,5,8,8,9,9,10,10,11,11,12,12,13,13,14,14,15,15,16,16,17,17,19,19,22,22,23,23,24,24,25,25,26,26,27,27,28,28,29,29,30,30,34,34],"right_children":[2,4,6,8,10,12,-1,-1,14,16,18,20,22,24,26,28,30,32,-1,34,-1,-1,36,38,40,42,44,46,48,50,52,-1,-1,-1,54,-1,-1,-1,-1,-1,-1,-1,-1,-1,-1,-1,-1,-1,-1,-1,-1,-1,-1,-1,-1],"split_conditions":[1.5288602E0,-1.853375E-2,3.691571E0,-4.186016E-1,5.011543E-1,2.8626816E0,8.051128E0,-6.8839073E-1,3.5256848E-1,1.0395144E-1,1.5717262E0,8.934285E-1,2.6976552E0,-5.761485E-1,3.6419383E-1,7.300316E-1,7.5344525E-2,9.5950365E-1,7.081706E-1,1.2988345E-1,9.4727373E-1,1.0059708E0,3.7957482E0,3.110096E-1,3.3219746E-1,-3.9675927E-1,1.0079635E-1,-8.862383E-1,7.8008497E-1,6.421735E-1,8.934285E-1,5.012924E-1,1.8593165E0,1.9579681E0,1.5567805E0,5.2785306E0,2.285349E0,-5.470809E-1,-6.8402267E-1,-4.1893402E-1,-5.799294E-1,-1.2738553E-1,3.9284255E-2,-5.6435436E-1,-3.6961722E-1,1.4224091E-1,5.659258E-1,9.59812E-1,2.1131973E-1,8.9447516E-1,1.1638031E-1,1.2540737E0,2.7132186E-1,2.0333142E0,3.8595161E0],"split_indices":[9,18,6,20,11,20,0,0,4,11,8,2,11,4,22,1,2,8,0,2,0,0,5,22,22,5,13,22,5,5,2,0,0,0,20,0,0,0,0,0,0,0,0,0,0,0,0,0,0,0,0,0,0,0,0],"split_type":[0,0,0,0,0,0,0,0,0,0,0,0,0,0,0,0,0,0,0,0,0,0,0,0,0,0,0,0,0,0,0,0,0,0,0,0,0,0,0,0,0,0,0,0,0,0,0,0,0,0,0,0,0,0,0],"sum_hessian":[8.65E2,7.94E2,7.1E1,7.24E2,7E1,5.6E1,1.5E1,7.3E1,6.51E2,4.9E1,2.1E1,2.5E1,3.1E1,5.96E2,5.5E1,2E1,2.9E1,1.9E1,2E0,2.3E1,2E0,1E0,3E1,2.7E2,3.26E2,9E0,4.6E1,1.1E1,9E0,1E1,1.9E1,1E0,1.8E1,6E0,1.7E1,2.7E1,3E0,1.28E2,1.42E2,8.8E1,2.38E2,3E0,6E0,1.8E1,2.8E1,1E0,1E1,8E0,1E0,8E0,2E0,1.8E1,1E0,6E0,1.1E1],"tree_param":{"num_deleted":"0","num_feature":"23","num_nodes":"55","size_leaf_vector":"1"}},{"base_weights":[1.2379575E0,-8.099814E0,9.120405E1,-1.0810611E1,2.0786594E1,7.275669E1,1.4762836E2,-6.4188856E-1,-1.0442461E1,1.4226885E1,2.651763E1,5.4117817E1,8.844732E1,7.654969E0,1.3655281E0,-1.0876991E1,-8.05006E0,1.5490516E1,4.305173E0,3.183519E1,1.801421E1,5.875337E1,1.7012936E0,9.217396E1,2.01245E0,-1.1003328E1,-4.9487042E0,-9.756841E0,-4.801329E0,1.5991536E1,4.9074173E-2,-3.5070293E0,5.3411585E-1,3.4180782E1,3.9658865E-1,1.8712263E1,2.0603676E-1,4.009149E1,6.788661E1,9.8082125E-1,9.4134735E1,-5.042845E-1,-5.9847564E-1,2.1906695E-3,-4.2605233E-1,-6.713139E-1,-4.3295422E-1,-3.6154693E-1,-9.731855E-2,3.2977092E-1,8.2397044E-1,-2.527611E-1,-1.0266113E-2,1.7572731E0,4.6864852E-1,2.3583679E-1,9.713008E-1,2.120775E0,4.7938615E-1,3.863734E0,1.7766577E0,3.0846803E0,5.227357E0],"categories":[],"categories_nodes":[],"categories_segments":[],"categories_sizes":[],"default_left":[0,0,0,0,0,0,0,0,0,0,0,0,0,0,0,0,0,0,0,0,0,0,0,0,0,0,0,0,0,0,0,0,0,0,0,0,0,0,0,0,0,0,0,0,0,0,0,0,0,0,0,0,0,0,0,0,0,0,0,0,0,0,0],"id":39,"left_children":[1,3,5,7,9,11,13,-1,15,17,19,21,23,-1,-1,25,27,29,31,33,35,37,-1,39,-1,41,43,45,47,49,-1,51,-1,53,-1,55,-1,57,59,-1,61,-1,-1,-1,-1,-1,-1,-1,-1,-1,-1,-1,-1,-1,-1,-1,-1,-1,-1,-1,-1,-1,-1],"loss_changes":[6.879265E5,5.8327145E4,6.940675E4,3.726797E2,2.028748E3,1.2760781E4,7.6674688E3,0E0,5.153906E2,3.3450684E2,9.186914E2,7.949844E2,1.8582344E3,0E0,0E0,3.1103906E2,4.6882764E2,1.8784521E2,2.865609E2,7.941699E2,6.836719E1,1.1985234E3,0E0,2.1369531E3,0E0,3.021914E2,2.1439316E2,1.2542969E2,2.2176465E2,1.508252E1,0E0,1.4297085E1,0E0,7.741797E1,0E0,4.8223633E1,0E0,3.022422E2,1.5065039E3,0E0,2.6704375E3,0E0,0E0,0E0,0E0,0E0,0E0,0E0,0E0,0E0,0E0,0E0,0E0,0E0,0E0,0E0,0E0,0E0,0E0,0E0,0E0,0E0,0E0],"parents":[2147483647,0,0,1,1,2,2,3,3,4,4,5,5,6,6,8,8,9,9,10,10,11,11,12,12,15,15,16,16,17,17,18,18,19,19,20,20,21,21,23,23,25,25,26,26,27,27,28,28,29,29,31,31,33,33,35,35,37,37,38,38,40,40],"right_children":[2,4,6,8,10,12,14,-1,16,18,20,22,24,-1,-1,26,28,30,32,34,36,38,-1,40,-1,42,44,46,48,50,-1,52,-1,54,-1,56,-1,58,60,-1,62,-1,-1,-1,-1,-1,-1,-1,-1,-1,-1,-1,-1,-1,-1,-1,-1,-1,-1,-1,-1,-1,-1],"split_conditions":[1.1269902E0,4.4449794E-1,3.691571E0,-4.1033643E-1,6.55874E-1,2.868122E0,8.934285E-1,-6.4188856E-1,1.6682509E-1,6.254882E-1,1.6999446E-1,2.1414876E0,3.7983522E0,7.654969E0,1.3655281E0,-3.612391E-1,-3.6074525E-1,8.934285E-1,7.300316E-1,1.0082864E0,6.7527276E-1,1.5567805E0,1.7012936E0,2.6976552E0,2.01245E0,-3.754088E-1,3.5093096E-1,-5.462908E-1,1.2564765E0,3.803573E-1,4.9074173E-2,4.0257812E-1,5.3411585E-1,1.057914E0,3.9658865E-1,-1.007497E-1,2.0603676E-1,1.7065527E0,1.9365665E0,9.8082125E-1,1.8442239E-1,-5.042845E-1,-5.9847564E-1,2.1906695E-3,-4.2605233E-1,-6.713139E-1,-4.3295422E-1,-3.6154693E-1,-9.731855E-2,3.2977092E-1,8.2397044E-1,-2.527611E-1,-1.0266113E-2,1.7572731E0,4.6864852E-1,2.3583679E-1,9.713008E-1,2.120775E0,4.7938615E-1,3.863734E0,1.7766577E0,3.0846803E0,5.227357E0],"split_indices":[20,8,6,20,20,6,2,0,4,6,16,17,15,0,0,9,20,2,1,8,2,20,0,11,0,9,16,10,12,15,0,2,0,6,0,10,0,6,6,0,2,0,0,0,0,0,0,0,0,0,0,0,0,0,0,0,0,0,0,0,0,0,0],"split_type":[0,0,0,0,0,0,0,0,0,0,0,0,0,0,0,0,0,0,0,0,0,0,0,0,0,0,0,0,0,0,0,0,0,0,0,0,0,0,0,0,0,0,0,0,0,0,0,0,0,0,0,0,0,0,0,0,0,0,0,0,0,0,0],"sum_hessian":[8.17E2,7.41E2,7.6E1,6.78E2,6.3E1,5.9E1,1.7E1,9.9E1,5.79E2,3.1E1,3.2E1,2.9E1,3E1,1.6E1,1E0,4.87E2,9.2E1,2.7E1,4E0,1.8E1,1.4E1,2.2E1,7E0,2.7E1,3E0,4.76E2,1.1E1,5.9E1,3.3E1,2.6E1,1E0,2E0,2E0,1.6E1,2E0,1.3E1,1E0,9E0,1.3E1,1E0,2.6E1,2.5E2,2.26E2,5E0,6E0,1.1E1,4.8E1,1.7E1,1.6E1,2E0,2.4E1,1E0,1E0,1.5E1,1E0,1E0,1.2E1,8E0,1E0,9E0,4E0,8E0,1.8E1],"tree_param":{"num_deleted":"0","num_feature":"23","num_nodes":"63","size_leaf_vector":"1"}},{"base_weights":[3.5862115E-1,-7.5143666E0,8.620163E1,-1.0403557E1,2.2599283E1,5.8269104E1,1.2016927E2,-6.6636693E-1,-1.0195689E1,1.7871113E1,1.6051486E0,5.998411E1,7.9896444E-1,6.11524E0,1.3491982E0,-1.0448694E1,-7.493029E0,1.2137379E1,1.9817823E1,2.2605195E0,7.119794E1,-9.382736E0,-1.1000665E1,6.346984E-1,-8.539007E0,1.4375E1,6.385114E0,2.0739773E1,5.069086E-1,3.7739046E0,1.0178833E0,-4.8491094E-1,-1.2678011E-1,-6.1670136E-1,-4.867456E-1,-9.195873E-2,1.7841826E-1,-4.8948127E-1,-3.6670995E-1,1.3078003E-1,7.695489E-1,9.1292195E-2,3.4658998E-1,6.4759064E-1,1.1235801E0],"categories":[],"categories_nodes":[],"categories_segments":[],"categories_sizes":[],"default_left":[0,0,0,0,0,0,0,0,0,0,0,0,0,0,0,0,0,0,0,0,0,0,0,0,0,0,0,0,0,0,0,0,0,0,0,0,0,0,0,0,0,0,0,0,0],"id":40,"left_children":[1,3,5,7,9,11,13,-1,15,17,-1,19,-1,-1,-1,21,23,25,27,-1,29,31,33,35,37,39,41,43,-1,-1,-1,-1,-1,-1,-1,-1,-1,-1,-1,-1,-1,-1,-1,-1,-1],"loss_changes":[5.872777E5,6.949034E4,6.2260438E4,3.0596094E2,2.5717344E3,2.0876562E3,3.0677188E3,0E0,3.8873438E2,3.0639844E2,0E0,3.4079219E3,0E0,0E0,0E0,2.627578E2,5.325078E2,1.0128491E2,1.02081055E2,0E0,3.0331172E3,4.4848438E2,5.617617E2,6.4623E1,1.1072266E1,7.9216064E1,2.2985382E0,1.270625E2,0E0,0E0,0E0,0E0,0E0,0E0,0E0,0E0,0E0,0E0,0E0,0E0,0E0,0E0,0E0,0E0,0E0],"parents":[2147483647,0,0,1,1,2,2,3,3,4,4,5,5,6,6,8,8,9,9,11,11,15,15,16,16,17,17,18,18,20,20,21,21,22,22,23,23,24,24,25,25,26,26,27,27],"right_children":[2,4,6,8,10,12,14,-1,16,18,-1,20,-1,-1,-1,22,24,26,28,-1,30,32,34,36,38,40,42,44,-1,-1,-1,-1,-1,-1,-1,-1,-1,-1,-1,-1,-1,-1,-1,-1,-1],"split_conditions":[1.4261059E0,-1.853375E-2,3.203942E0,-4.35132E-1,9.5950365E-1,8.934285E-1,8.934285E-1,-6.6636693E-1,3.5256848E-1,5.3189605E-1,1.6051486E0,1.812359E0,7.9896444E-1,6.11524E0,1.3491982E0,3.212664E-1,3.6419383E-1,4.632736E-1,7.174937E-1,2.2605195E0,3.1671398E0,-3.645223E-1,-2.046617E-1,-3.658896E-1,-4.0264258E-1,4.323799E-1,4.8169947E-1,7.5344525E-2,5.069086E-1,3.7739046E0,1.0178833E0,-4.8491094E-1,-1.2678011E-1,-6.1670136E-1,-4.867456E-1,-9.195873E-2,1.7841826E-1,-4.8948127E-1,-3.6670995E-1,1.3078003E-1,7.695489E-1,9.1292195E-2,3.4658998E-1,6.4759064E-1,1.1235801E0],"split_indices":[10,18,6,20,8,2,2,0,4,20,0,6,0,0,0,22,22,14,6,0,6,9,4,14,18,7,14,2,0,0,0,0,0,0,0,0,0,0,0,0,0,0,0,0,0],"split_type":[0,0,0,0,0,0,0,0,0,0,0,0,0,0,0,0,0,0,0,0,0,0,0,0,0,0,0,0,0,0,0,0,0,0,0,0,0,0,0,0,0,0,0,0,0],"sum_hessian":[8.67E2,7.95E2,7.2E1,7.26E2,6.9E1,4.1E1,3.1E1,4.4E1,6.82E2,4.8E1,2.1E1,3.9E1,2E0,3E1,1E0,6.21E2,6.1E1,1.4E1,3.4E1,1.9E1,2E1,2.18E2,4.03E2,7E0,5.4E1,9E0,5E0,3E1,4E0,1.8E1,2E0,2.08E2,1E1,1.92E2,2.11E2,4E0,3E0,2.3E1,3.1E1,1E0,8E0,1E0,4E0,7E0,2.3E1],"tree_param":{"num_deleted":"0","num_feature":"23","num_nodes":"45","size_leaf_vector":"1"}},{"base_weights":[8.254927E-1,-6.651575E0,9.283824E1,-9.904959E0,2.359007E1,7.297919E1,1.3707704E2,-7.304034E0,-1.0212675E1,1.7297178E1,3.4836006E1,4.216957E-1,7.4199E1,8.401963E1,1.500247E2,-1.81972E0,-8.54165E0,-1.1325293E1,-9.57565E0,1.2248046E1,2.0591608E1,2.3202209E-1,3.5818897E1,5.700964E1,8.230968E1,5.6371317E0,1.771576E1,7.7353883E0,2.228624E0,1.83325E0,-3.1901476E0,-7.2414265E0,-1.1308431E1,-2.2142155E-1,-1.1422149E1,-6.8037233E0,-1.0088302E1,1.3303924E1,-2.7453157E-1,2.1707699E1,3.3108978E0,3.979931E1,2.3878197E1,1.5758471E0,6.2042057E1,8.572836E1,1.9755379E0,-2.8076172E-3,1.3314896E0,6.2170345E-3,1.465538E-1,3.5439637E-2,-1.8045162E-1,-3.9849406E-1,2.357853E-2,-3.1385995E-2,-5.9334654E-1,6.84761E-2,-8.5082725E-2,-5.4893935E-1,-7.43862E-1,-3.8323066E-1,-8.229842E-2,-4.8785803E-1,-6.9948095E-1,4.1961405E-1,8.029367E-1,2.3916118E-1,1.1412805E0,2.2309648E-1,2.5220871E-2,2.1094368E0,6.8946284E-1,3.0423662E-1,1.2670895E0,3.7921853E0,2.110518E0,3.1890943E0,5.1384273E0],"categories":[],"categories_nodes":[],"categories_segments":[],"categories_sizes":[],"default_left":[0,0,0,0,0,0,0,0,0,0,0,0,0,0,0,0,0,0,0,0,0,0,0,0,0,0,0,0,0,0,0,0,0,0,0,0,0,0,0,0,0,0,0,0,0,0,0,0,0,0,0,0,0,0,0,0,0,0,0,0,0,0,0,0,0,0,0,0,0,0,0,0,0,0,0,0,0,0,0],"id":41,"left_children":[1,3,5,7,9,11,13,15,17,19,21,-1,23,25,27,29,31,33,35,37,39,-1,41,43,45,-1,47,-1,-1,49,51,53,55,57,59,61,63,65,-1,67,69,71,73,-1,75,77,-1,-1,-1,-1,-1,-1,-1,-1,-1,-1,-1,-1,-1,-1,-1,-1,-1,-1,-1,-1,-1,-1,-1,-1,-1,-1,-1,-1,-1,-1,-1,-1,-1],"loss_changes":[5.95037E5,7.89438E4,4.7101375E4,5.040625E2,4.917453E3,3.0746719E3,4.4740625E2,5.274546E2,3.479922E2,6.127627E2,6.3511523E2,0E0,1.72075E3,9.429352E3,1.803125E1,8.594643E1,1.5194385E2,2.4375586E2,5.225156E2,5.0383374E2,5.0673145E2,0E0,2.8541406E2,3.5383984E2,8.559844E2,0E0,4.767536E2,0E0,0E0,9.015974E0,2.2156532E1,2.6783105E2,1.05889404E2,9.395354E0,1.8439648E2,2.8932153E2,3.143711E2,1.6290479E2,0E0,4.2058203E2,7.440365E0,5.369336E2,8.018359E1,0E0,6.305547E2,3.1685E3,0E0,0E0,0E0,0E0,0E0,0E0,0E0,0E0,0E0,0E0,0E0,0E0,0E0,0E0,0E0,0E0,0E0,0E0,0E0,0E0,0E0,0E0,0E0,0E0,0E0,0E0,0E0,0E0,0E0,0E0,0E0,0E0,0E0],"parents":[2147483647,0,0,1,1,2,2,3,3,4,4,5,5,6,6,7,7,8,8,9,9,10,10,12,12,13,13,14,14,15,15,16,16,17,17,18,18,19,19,20,20,22,22,23,23,24,24,26,26,29,29,30,30,31,31,32,32,33,33,34,34,35,35,36,36,37,37,39,39,40,40,41,41,42,42,44,44,45,45],"right_children":[2,4,6,8,10,12,14,16,18,20,22,-1,24,26,28,30,32,34,36,38,40,-1,42,44,46,-1,48,-1,-1,50,52,54,56,58,60,62,64,66,-1,68,70,72,74,-1,76,78,-1,-1,-1,-1,-1,-1,-1,-1,-1,-1,-1,-1,-1,-1,-1,-1,-1,-1,-1,-1,-1,-1,-1,-1,-1,-1,-1,-1,-1,-1,-1,-1,-1],"split_conditions":[1.8212668E0,4.2884162E-1,3.691571E0,3.0394015E-1,1.0303513E0,-6.844222E-2,1.2988345E-1,-2.8211358E-1,-4.8327678E-1,5.778149E-1,-2.1487434E-1,4.216957E-1,2.6976552E0,2.3633459E-1,4.2049065E0,-3.9577267E-1,3.3962244E-1,-5.306808E-1,3.3219746E-1,5.6862074E-1,8.934285E-1,2.3202209E-1,2.7177125E-1,7.5344525E-2,3.6593692E0,5.6371317E0,7.5344525E-2,7.7353883E0,2.228624E0,5.187439E-1,-3.9628804E-1,-3.5207006E-1,-3.8708848E-1,1.4933567E0,3.4288335E-1,-3.644434E-1,-3.2768685E-1,9.378347E-2,-2.7453157E-1,5.3189605E-1,8.6283183E-1,1.6665361E0,1.0636111E0,1.5758471E0,1.8466E0,-4.180492E-1,1.9755379E0,-2.8076172E-3,1.3314896E0,6.2170345E-3,1.465538E-1,3.5439637E-2,-1.8045162E-1,-3.9849406E-1,2.357853E-2,-3.1385995E-2,-5.9334654E-1,6.84761E-2,-8.5082725E-2,-5.4893935E-1,-7.43862E-1,-3.8323066E-1,-8.229842E-2,